tree
version=v4
num_class=1
num_tree_per_iteration=1
label_index=0
max_feature_idx=123
objective=regression
feature_names=1d_lr_mean_1 1d_lr_std_1 1d_rv_1 1d_mom_1 1d_high_low_1 1d_vol_mean_1 1d_vol_std_1 1d_atr_1 1d_lr_mean_7 1d_lr_std_7 1d_rv_7 1d_mom_7 1d_high_low_7 1d_vol_mean_7 1d_vol_std_7 1d_atr_7 1d_lr_mean_15 1d_lr_std_15 1d_rv_15 1d_mom_15 1d_high_low_15 1d_vol_mean_15 1d_vol_std_15 1d_atr_15 1d_rsi_14 1d_dow 1d_hour 1d_month 1h2d_mean_24h_1h_lr_std_1 1h2d_mean_24h_1h_rv_1 1h2d_mean_24h_1h_vol_mean_1 1h2d_mean_24h_1h_atr_1 1h2d_mean_24h_1h_lr_std_24 1h2d_mean_24h_1h_rv_24 1h2d_mean_24h_1h_vol_mean_24 1h2d_mean_24h_1h_atr_24 1h2d_mean_24h_1h_lr_std_168 1h2d_mean_24h_1h_rv_168 1h2d_mean_24h_1h_vol_mean_168 1h2d_mean_24h_1h_atr_168 1h2d_mean_24h_1h_lr_std_360 1h2d_mean_24h_1h_rv_360 1h2d_mean_24h_1h_vol_mean_360 1h2d_mean_24h_1h_atr_360 1h2d_std_24h_1h_lr_std_1 1h2d_std_24h_1h_rv_1 1h2d_std_24h_1h_vol_mean_1 1h2d_std_24h_1h_atr_1 1h2d_std_24h_1h_lr_std_24 1h2d_std_24h_1h_rv_24 1h2d_std_24h_1h_vol_mean_24 1h2d_std_24h_1h_atr_24 1h2d_std_24h_1h_lr_std_168 1h2d_std_24h_1h_rv_168 1h2d_std_24h_1h_vol_mean_168 1h2d_std_24h_1h_atr_168 1h2d_std_24h_1h_lr_std_360 1h2d_std_24h_1h_rv_360 1h2d_std_24h_1h_vol_mean_360 1h2d_std_24h_1h_atr_360 1h2d_mean_168h_1h_lr_std_1 1h2d_mean_168h_1h_rv_1 1h2d_mean_168h_1h_vol_mean_1 1h2d_mean_168h_1h_atr_1 1h2d_mean_168h_1h_lr_std_24 1h2d_mean_168h_1h_rv_24 1h2d_mean_168h_1h_vol_mean_24 1h2d_mean_168h_1h_atr_24 1h2d_mean_168h_1h_lr_std_168 1h2d_mean_168h_1h_rv_168 1h2d_mean_168h_1h_vol_mean_168 1h2d_mean_168h_1h_atr_168 1h2d_mean_168h_1h_lr_std_360 1h2d_mean_168h_1h_rv_360 1h2d_mean_168h_1h_vol_mean_360 1h2d_mean_168h_1h_atr_360 1h2d_std_168h_1h_lr_std_1 1h2d_std_168h_1h_rv_1 1h2d_std_168h_1h_vol_mean_1 1h2d_std_168h_1h_atr_1 1h2d_std_168h_1h_lr_std_24 1h2d_std_168h_1h_rv_24 1h2d_std_168h_1h_vol_mean_24 1h2d_std_168h_1h_atr_24 1h2d_std_168h_1h_lr_std_168 1h2d_std_168h_1h_rv_168 1h2d_std_168h_1h_vol_mean_168 1h2d_std_168h_1h_atr_168 1h2d_std_168h_1h_lr_std_360 1h2d_std_168h_1h_rv_360 1h2d_std_168h_1h_vol_mean_360 1h2d_std_168h_1h_atr_360 1h2d_mean_360h_1h_lr_std_1 1h2d_mean_360h_1h_rv_1 1h2d_mean_360h_1h_vol_mean_1 1h2d_mean_360h_1h_atr_1 1h2d_mean_360h_1h_lr_std_24 1h2d_mean_360h_1h_rv_24 1h2d_mean_360h_1h_vol_mean_24 1h2d_mean_360h_1h_atr_24 1h2d_mean_360h_1h_lr_std_168 1h2d_mean_360h_1h_rv_168 1h2d_mean_360h_1h_vol_mean_168 1h2d_mean_360h_1h_atr_168 1h2d_mean_360h_1h_lr_std_360 1h2d_mean_360h_1h_rv_360 1h2d_mean_360h_1h_vol_mean_360 1h2d_mean_360h_1h_atr_360 1h2d_std_360h_1h_lr_std_1 1h2d_std_360h_1h_rv_1 1h2d_std_360h_1h_vol_mean_1 1h2d_std_360h_1h_atr_1 1h2d_std_360h_1h_lr_std_24 1h2d_std_360h_1h_rv_24 1h2d_std_360h_1h_vol_mean_24 1h2d_std_360h_1h_atr_24 1h2d_std_360h_1h_lr_std_168 1h2d_std_360h_1h_rv_168 1h2d_std_360h_1h_vol_mean_168 1h2d_std_360h_1h_atr_168 1h2d_std_360h_1h_lr_std_360 1h2d_std_360h_1h_rv_360 1h2d_std_360h_1h_vol_mean_360 1h2d_std_360h_1h_atr_360
feature_infos=[-0.18594606686950144:0.21808772642745522] none [0:0.21808772642745522] [-0.16968162455635527:0.24369616785515058] [0.0016911685357259821:0.19661298673632188] [5855900:1543911000] none [0.19096363345986234:62.040008544921875] [-0.040776162201860151:0.054046821469086126] [0:0.11292626254550656] [0:0.279053158690727] [-0.24831139915414258:0.45984132788533283] [0:0.35812009725294763] [0:860616000] [0:419205952.8110714] [0:35.105708122742485] [-0.025057567248823354:0.028608651056025756] [0:0.079368448292795324] [0:0.29779966863176199] [-0.31330394533894501:0.53592033145867157] [0:0.50402760043978856] [0:694810600] [0:350082374.33872348] [0:23.379061107054476] [0:96.994917837413468] [0:4] none [1:12] none [0:0.043463859934920128] [0:106407719.57142857] [0:14.651423863002233] [0:0.052481705334450846] [0:0.25919614129514457] [0:70215387.857142851] [0:12.230682736351374] [0:0.023847214118154773] [0:0.3094626726432817] [0:48362309.378401361] [0:5.8999929363224783] [0:0.020060806079137523] [0:0.38033843731256284] [0:44195962.198412701] [0:4.6972231789240766] none [0:0.089765929285654453] [0:74624447.244950846] [0:21.772993564041663] [0:0.019093934212261968] [0:0.095522127210655075] [0:7011068.6664036391] [0:1.3509273681758414] [0:0.0016339461841713239] [0:0.021347008289992739] [0:690698.52113592252] [0:0.18515629219471019] [0:0.0014442367307978049] [0:0.02752227188334843] [0:522249.22349524451] [0:0.096378601730824215] none [0:0.023760677613540893] [0:69354037.257142857] [0:12.110634940011161] [0:0.042798721103834966] [0:0.20971849229177059] [0:63949002.37261904] [0:10.98958507719494] [0:0.023468686099992159] [0:0.30510600516328995] [0:48131229.143069729] [0:5.8537141812901918] [0:0.020022920296107648] [0:0.37960186590406891] [0:43986508.973611116] [0:4.6821283419170072] none [0:0.042743060324671997] [0:49734451.755387962] [0:10.321604236682958] [0:0.021954849996543457] [0:0.10772168936847269] [0:18783854.791703474] [0:2.9307384493886026] [0:0.0060291054312057281] [0:0.078376228019841246] [0:3232781.9521250124] [0:0.59011236614914842] [0:0.003010063702499398] [0:0.05731053802143881] [0:1733471.8867920393] [0:0.29097518799286476] none [0:0.017138106920551864] [0:55440429.155844159] [0:8.194473464767654] [0:0.02811472036597373] [0:0.13748683918393548] [0:54358619.395562768] [0:8.3191808246430892] [0:0.023301160927077604] [0:0.30310282686365575] [0:47549727.539285712] [0:5.7677529098520175] [0:0.019944757026275628] [0:0.37820001111001034] [0:43589604.388571426] [0:4.6514095499057957] none [0:0.029545929597252048] [0:39577516.329509243] [0:7.3165407189394163] [0:0.020551184924339942] [0:0.10133425619016709] [0:19163077.701801158] [0:3.7456692529408433] [0:0.0060966153126630254] [0:0.079400524744701995] [0:5699073.0369069781] [0:0.94104904200024364] [0:0.0030640638582723929] [0:0.058263472163275293] [0:3300719.5558647136] [0:0.47804228369913898]
tree_sizes=1650 1530 1588 1592 1594 1574 1550 1589 1511 1593 1613 1623 1599 1718 1580 1592 1519 1516 1551 1685 1521 1570 1537 1637 1534 1500 1540 1605 1552 1486 1523 1542 1685 1523 1592 1513 1485 1499 1610 1515 1582 1561 1532 1481 1554 1508 1549 1569 1480 1573 1475 1597 1495 1499 1557 1531 1544 1656 1460 1498 1488 1532 1492 1447 1502 1512 1546 1547 1459 1453 1556 1459 1525 1502 1478 1522 1580 1482 1467 1516 1513 1436 1489 1477 1495 1459 1504 1525 1580 1442 1479 1596 1525 1453 1585 1544 1507 1460 1608 1542 1478 1593 1466 1445 1524 1479 1523 1486 1522 1496 1492 1525 1483 1450 1476 1498 1523 1436 1444 1486 1460 1446 1491 1524 1503 1491 1525 1475 1505 1477 1470 1470 1511 1514 1506 1487 1457 1489 1565 1472 1459 1492 1480 1488 1490 1505 1441 1542 1506 1551 1462 1487 1459 1448 1554 1472 1515 1532 1488 1459 1503 1487 1452 1493 1480 1440 1537 1564 1500 1486 1437 1485 1438 1447 1531 1431 1589 1519 1503 1461 1450 1488 1468 1452 1476 1500 1429 1456 1463 1483 1459 1528 1479 1464 1515 1473 1522 1424 1470 1482 1505 1509 1478 1439 1586 1452 1524 1440 1477 1456 1477 1510 1477 1486 1466 1525 1453 1454 1537 1476 1476 1494 1459 1499 1460 1425 1492 1443 1464 1471 1454 1483 1453 1490 1461 1461 1522 1446 1458 1450 1468 1465 1481 1455 1537 1463 1442 1401 1446 1453 1448 1464 1501 1416 1452 1503 1482 1446 1504 1498 1472 1437 1486 1436 1462 1482 1456 1452 1466 1458 1445 1452 1434 1466 1475 1472 1446 1460 1456 1429 1472 1435 1453 1499 1443 1476 1483 1454 1487 1430 1445 1446 1472 1490 1461 1445 1435 1438 1491 1496 1408 1437 1456 1442 1462 1490 1449 1468 1439 1525 1513 1502 1463 1466 1490 1447 1512 1476 1477 1487 1445 1472 1420 1441 1469 1484 1460 1431 1472 1506 1449 1416 1475 1468 1442 1441 1433 1447 1451 1455 1431 1424 1452 1423 1460 1432 1446 1471 1443 1422 1440 1474 1503 1408 1455 1448 1463 1468 1461 1450 1443 1462 1457 1524 1433 1501 1486 1467 1440 1438 1456 1460 1423 1439 1417 1464 1439 1445 1478 1439 1481 1432 1459 1511 1442 1457 1455 1462 1426 1475 1440 1503 1442 1462 1434 1468 1472 1494 1472 1476 1425 1442 1502 1423 1495 1464 1467 1509 1486 1438 1509 1454 1433 1525 1455 1460 1485 1452 1453 1489 1447 1443 1466 1432 1448 1442 1424 1432 1457 1418 1426 1434 1469 1427 1447 1422 1411 1434 1427 1435 1525 1432 1458 1459

Tree=0
num_leaves=17
num_cat=0
split_feature=120 23 22 18 61 71 17 17 22 21 20 72 87 120 24 24
split_gain=0.336432 0.192937 0.249793 0.23551 0.231528 0.37135 0.149547 0.140493 0.129247 0.107511 0.106 0.100507 0.156474 0.142203 0.114586 0.0885528
threshold=0.00070174458935509448 0.79270483096123379 86205565.009989306 0.078244288486132643 0.0049903703468712687 1.2808099182284611 0.033954495536209148 0.044635030592937462 177569233.05423027 299106266.66666675 0.10563437768088607 0.014679081967939331 0.066954198959425407 0.00021104512304970089 52.61453878652442 70.792336837583079
decision_type=2 2 2 2 2 2 2 2 2 2 2 2 2 2 2 2
left_child=1 2 3 -1 6 8 -3 15 -6 -2 -7 13 -13 14 -12 -8
right_child=9 4 -4 -5 5 10 7 -9 -10 -11 11 12 -14 -15 -16 -17
leaf_value=0.0083248638276945015 0.0094382737919860241 0.0080090838957153302 0.0083248638276945015 0.015805460681796633 0.012173392920460536 0.010981390175261889 0.0048055761798439468 0.0083248638276945015 0.0083248638276945015 0.014760136725932011 0.0079852549695099573 0.012249003726446921 0.0075770704732515863 0.008456216691097404 0.0044772372860564461 0.0083248638276945015
leaf_weight=55 121 4130 194 71 252 80 241 147 42 61 204 79 53 343 134 33
leaf_count=55 121 4130 194 71 252 80 241 147 42 61 204 79 53 343 134 33
internal_value=0.00832486 0.00822479 0.0100768 0.0127998 0.00810788 0.00905994 0.00784243 0.00639319 0.0114842 0.0116535 0.00832486 0.00799336 0.00978477 0.0075315 0.00636303 0.0053418
internal_weight=6240 6058 320 126 5738 1187 4551 421 294 182 893 813 132 681 338 274
internal_count=6240 6058 320 126 5738 1187 4551 421 294 182 893 813 132 681 338 274
is_linear=0
shrinkage=1


Tree=1
num_leaves=17
num_cat=0
split_feature=120 23 61 104 22 23 17 120 22 17 17 9 78 41 101 119
split_gain=0.291582 0.175347 0.167679 0.197463 0.153725 0.188125 0.151197 0.133413 0.127242 0.126769 0.118144 0.124063 0.100221 0.098115 0.246064 0.0962187
threshold=0.00070174458935509448 3.8873844265911055 0.0051980071686110177 0.0092708532825630952 118664291.95821939 0.87337360246555307 0.033954495536209148 0.00021104512304970089 86205565.009989306 0.018691307297697687 0.026739206093690827 0.045308895916207785 4758166.026626817 0.21218319163144508 0.1639853674037928 0.069436000859821087
decision_type=2 2 2 2 2 2 2 2 2 2 2 2 2 2 2 2
left_child=1 2 4 12 5 8 -6 10 9 -1 -3 -12 -4 -9 15 -15
right_child=-2 7 3 -5 6 -7 -8 13 -10 -11 11 -13 -14 14 -16 -17
leaf_value=0 0.0031010403853738949 -0.0003780402369834383 0.0058533544043013561 0 0 9.2394311848300231e-05 -0.0033456645092943956 0 0 0.0059345170891277775 -0.0021805287290870149 0.00053126225346156783 0 0.0067480967564805686 0 0
leaf_weight=49 182 2592 96 119 136 1316 136 573 96 89 511 77 21 63 156 28
leaf_count=49 182 2592 96 119 136 1316 136 573 96 89 511 77 21 63 156 28
internal_value=0 -9.08878e-05 0.000481671 0.00248203 0.000179631 0.000519848 -0.00147205 -0.000404954 0.0025895 0.00412995 -0.000645731 -0.00169289 0.00477846 0.000433735 0.00175421 0.0050025
internal_weight=6240 6058 2058 236 1822 1550 272 4000 234 138 3180 588 117 820 247 91
internal_count=6240 6058 2058 236 1822 1550 272 4000 234 138 3180 588 117 820 247 91
is_linear=0
shrinkage=0.0786055


Tree=2
num_leaves=17
num_cat=0
split_feature=120 23 61 104 117 23 21 12 21 100 41 37 120 8 119 8
split_gain=0.24691 0.152129 0.141655 0.165989 0.122007 0.115925 0.160193 0.103398 0.0914093 0.0669137 0.189343 0.0864348 0.0807953 0.0782055 0.0734175 0.0650399
threshold=0.00070174458935509448 3.8873844265911055 0.0051980071686110177 0.0092708532825630952 0.0040182328675064409 0.79270483096123379 494392933.33333343 0.13977348191745145 299106266.66666675 0.012408376212490215 0.21503607649940623 0.22337361277535592 0.00017069492712685897 -0.0086307477081348453 0.069436000859821087 0.0037593692301920766
decision_type=2 2 2 2 2 2 2 2 2 2 2 2 2 2 2 2
left_child=1 2 5 -4 -3 -1 15 -8 -2 10 -6 13 -12 -11 -14 -7
right_child=8 4 3 -5 9 6 7 -9 -10 11 12 -13 14 -15 -16 -17
leaf_value=0.0015457902188187982 0.00078252804984111539 -0.00066353574601761989 0.0044014050347522217 0 0 -9.4204240095430646e-05 -0.0044512025302189066 0 0.005687445622641161 0 0 0.0019642526522344874 0.006116850348339478 -0.0023522599354003078 0 0.0010652496582915999
leaf_weight=319 121 2810 117 119 744 918 80 116 61 59 68 40 66 180 33 389
leaf_count=319 121 2810 117 119 744 918 80 116 61 59 68 40 66 180 33 389
internal_value=0 -7.9581e-05 0.000452772 0.00229498 -0.000372961 0.000171229 -6.87963e-05 -0.00219967 0.00285748 0.000247715 0.000621644 -0.000693814 0.00301762 -0.00146541 0.00451516 0.000191354
internal_weight=6240 6058 2058 236 4000 1822 1503 196 182 1190 911 279 167 239 99 1307
internal_count=6240 6058 2058 236 4000 1822 1503 196 182 1190 911 279 167 239 99 1307
is_linear=0
shrinkage=0.0786055


Tree=3
num_leaves=17
num_cat=0
split_feature=120 23 11 17 86 61 102 21 90 121 123 121 122 13 104 82
split_gain=0.214314 0.126547 0.124133 0.137198 0.116202 0.112203 0.103937 0.0723992 0.0722222 0.0726378 0.069558 0.0986317 0.083341 0.0642831 0.0636523 0.0619621
threshold=0.00070174458935509448 3.8873844265911055 0.046614307297934816 0.039840451434172156 86915.426103901671 0.0058998092228661047 6023627.2808828084 299106266.66666675 218945.43806738631 0.0051011286447219051 0.022993233810674935 0.0017324567337331064 170400.9223839638 453264500.00000006 0.011025892071271854 982318.40361875866
decision_type=2 2 2 2 2 2 2 2 2 2 2 2 2 2 2 2
left_child=1 2 5 6 -3 13 -4 -2 10 -10 11 -6 -13 -1 -7 -12
right_child=7 4 3 -5 8 14 -8 -9 9 -11 15 12 -14 -15 -16 -17
leaf_value=6.9878743172952889e-05 0.00072109066590961323 -0.00065638379129142742 0.0027192475786869544 -0.0014160259795445022 0 0.004589610208497164 0 0.0052414426042619198 -0.0024112942152594921 0 -0.00050682247341414044 0.0035993124186627329 0 -0.0013785344577511168 0 0.00092281262821757839
leaf_weight=1278 121 2597 338 55 191 51 90 61 116 93 482 141 76 211 35 304
leaf_count=1278 121 2597 338 55 191 51 90 61 116 93 482 141 76 211 35 304
internal_value=0 -6.88663e-05 0.000415348 0.00152322 -0.000337479 2.6026e-05 0.00208326 0.00266689 0.000197302 -0.00104064 0.000479343 0.0013135 0.00245955 -8.31615e-05 0.00281792 0
internal_weight=6240 6058 2058 483 4000 1575 428 182 1403 209 1194 408 217 1489 86 786
internal_count=6240 6058 2058 483 4000 1575 428 182 1403 209 1194 408 217 1489 86 786
is_linear=0
shrinkage=0.0786055


Tree=4
num_leaves=17
num_cat=0
split_feature=121 61 71 15 22 18 17 9 24 22 20 72 123 121 27 68
split_gain=0.179529 0.110043 0.224857 0.0946478 0.222741 0.125341 0.103025 0.125071 0.0938765 0.0884376 0.0849603 0.0794396 0.125237 0.100169 0.150229 0.0714506
threshold=0.013359214475033266 0.0049903703468712687 1.2963784847129773 0.86008797418959559 86205565.009989306 0.078244288486132643 0.033954495536209148 0.045308895916207785 46.066959991057139 177569233.05423027 0.10563437768088607 0.014679081967939331 0.022528880717237448 0.0040600368162547161 8.5000000000000018 0.0073758930529946075
decision_type=2 2 2 2 2 2 2 2 2 2 2 2 2 2 2 2
left_child=1 3 9 4 5 -1 -5 8 -8 15 -4 13 -13 14 -12 -3
right_child=-2 2 10 6 -6 -7 7 -9 -10 -11 11 12 -14 -15 -16 -17
leaf_value=0 0.0024433713059670483 0 0.0023989181235551087 -0.0002067929672952928 -0.00017818509839057984 0.0056511604889377624 -9.3341703584656641e-05 0 -0.0040242474116886015 0 -0.0028452186940428155 0.0043223419459991691 0 3.9774715359936349e-05 0.000166487057505584 0.003514140494423168
leaf_weight=41 182 38 80 4133 221 77 110 142 145 42 232 53 79 335 103 227
leaf_count=41 182 38 80 4133 221 77 110 142 145 42 232 53 79 335 103 227
internal_value=5.14546e-07 -6.00714e-05 0.000599786 -0.000237222 0.00097131 0.00378125 -0.00034489 -0.00158577 -0.00263496 0.00243233 0 -0.000281878 0.00128757 -0.000707561 -0.00168708 0.00298568
internal_weight=6240 6058 1189 4869 339 118 4530 397 255 307 882 802 132 670 335 265
internal_count=6240 6058 1189 4869 339 118 4530 397 255 307 882 802 132 670 335 265
is_linear=0
shrinkage=0.0786055


Tree=5
num_leaves=17
num_cat=0
split_feature=121 22 23 22 8 21 41 87 106 17 9 21 42 55 21 23
split_gain=0.153823 0.177454 0.124841 0.103608 0.102763 0.10251 0.0967697 0.178469 0.0950873 0.0815358 0.0923696 0.0783635 0.0696978 0.0688561 0.0474098 0.0505648
threshold=0.0043771633454703666 61534888.675162889 3.9062209400501682 118664291.95821939 0.0065100680189775148 517566966.66666669 0.21290739694941957 0.030407204327487596 5915146.904274893 0.026739206093690827 0.045308895916207785 46045910.000000007 36536046.866865084 0.012384322054089921 52173013.333333336 2.4236034505843107
decision_type=2 2 2 2 2 2 2 2 2 2 2 2 2 2 2 2
left_child=2 6 3 4 14 -5 -2 -8 -6 -4 11 -11 -13 -3 -1 -16
right_child=1 13 9 5 8 -7 7 -9 -10 10 -12 12 -14 -15 15 -17
leaf_value=0.0010441722988150915 -5.2363534384918281e-05 0.003895943532432554 -0.00024225726040861046 0 0.0025037352884978042 -0.0026668298724321954 0.0048942573701233425 0 0 0 0.00055785067478702132 -0.0024895348651892365 0 0 0.00078846837009558174 -0.00043087641513775058
leaf_weight=324 634 149 2635 222 279 123 74 123 54 92 77 407 33 34 299 681
leaf_count=324 634 149 2635 222 279 123 74 123 54 92 77 407 33 34 299 681
internal_value=7.52809e-07 0.000898665 -0.00015858 0.000309696 0.000599235 -0.000838072 0.000304661 0.00184808 0.00186789 -0.000468703 -0.00132028 -0.00173861 -0.00218052 0.00316821 0.000215345 0
internal_weight=6240 1014 5226 1982 1637 345 831 197 333 3244 609 532 440 183 1304 980
internal_count=6240 1014 5226 1982 1637 345 831 197 333 3244 609 532 440 183 1304 980
is_linear=0
shrinkage=0.0786055


Tree=6
num_leaves=17
num_cat=0
split_feature=61 71 23 22 18 36 37 19 41 41 104 107 104 17 10 19
split_gain=0.146178 0.185524 0.11519 0.156728 0.134808 0.0990317 0.0935098 0.0960056 0.0904914 0.0884361 0.111696 0.103414 0.0877601 0.0825227 0.110835 0.0865254
threshold=0.0049903703468712687 1.2808099182284611 0.79270483096123379 86205565.009989306 0.078244288486132643 0.016545230376786641 0.15438373209983203 -0.11163984328955999 0.27477741221423307 0.21503607649940623 0.010073047718090715 1.6215528426920354 0.011757809429562329 0.033954495536209148 0.11289455457215451 -0.076767676892118594
decision_type=2 2 2 2 2 2 2 2 2 2 2 2 2 2 2 2
left_child=2 8 3 4 -1 6 9 -8 -2 10 -3 -11 -9 -4 15 -15
right_child=1 5 13 -5 -6 -7 7 12 -10 11 -12 -13 -14 14 -16 -17
leaf_value=0 0.002851323712592013 0.00076338577244016727 -0.00016854547316160024 0 0.0056533137687305368 0.0024880266097755642 0.0007806492026881562 0 0 0 -0.0020471286509822773 0.0037240210312876575 -0.0028615683864988339 0 0 -0.0033910286076082475
leaf_weight=51 299 277 4185 194 71 100 66 80 41 42 126 94 190 83 166 175
leaf_count=51 299 277 4185 194 71 100 66 80 41 42 126 94 190 83 166 175
internal_value=1.3575e-06 0.000749592 -0.000182621 0.00122246 0.00343455 0.000112538 -7.02823e-05 -0.00117219 0.00234655 0.000472233 0 0.00221285 -0.00193813 -0.000295896 -0.00136869 -0.00239391
internal_weight=6240 1315 4925 316 122 975 875 336 340 539 403 136 270 4609 424 258
internal_count=6240 1315 4925 316 122 975 875 336 340 539 403 136 270 4609 424 258
is_linear=0
shrinkage=0.0786055


Tree=7
num_leaves=17
num_cat=0
split_feature=120 80 99 70 23 40 18 10 27 85 21 20 19 39 37 13
split_gain=0.132913 0.0786731 0.131067 0.131784 0.104771 0.0707429 0.0699698 0.0916441 0.0518591 0.0540702 0.0457012 0.044425 0.0761826 0.100063 0.0782298 0.0967141
threshold=0.00070174458935509448 0.0012253624959280354 1.5378393775972972 4895979.1683460893 0.79270483096123379 0.0051266039362113736 0.12739059390650045 0.10568797677686205 6.5000000000000009 0.012747272852305416 299106266.66666675 0.14155024875539021 -0.074058521990968115 1.9044419405411703 0.22337361277535592 46752471.428571433
decision_type=2 2 2 2 2 2 2 2 2 2 2 2 2 2 2 2
left_child=1 4 3 -3 -1 -5 -6 -8 9 -7 -2 -4 -13 -14 15 -15
right_child=10 2 11 5 6 8 7 -9 -10 -11 -12 12 13 14 -16 -17
leaf_value=0.0011142509316886362 0.00041085896647042599 -0.0015180798353414673 0.00043066480119364559 0 -0.00018472888808852719 0.0037328307647663582 -0.0021501738140023438 0 0.00059964961254408864 0 0.0041803214935037221 0.00056563823327145167 0 0 0 -0.0043527697984513001
leaf_weight=318 121 51 403 59 3896 203 287 236 157 26 61 120 124 24 31 123
leaf_count=318 121 51 403 59 3896 203 287 236 157 26 61 120 124 24 31 123
internal_value=1.16422e-06 -4.9209e-05 0.000469508 0.00148839 -0.000210321 0.00200837 -0.000323304 -0.00120632 0.00240454 0.00330076 0.00210434 -4.87814e-05 -0.000691204 -0.00144852 -0.00265128 -0.00343441
internal_weight=6240 6058 1321 496 4737 445 4419 523 386 229 182 825 422 302 178 147
internal_count=6240 6058 1321 496 4737 445 4419 523 386 229 182 825 422 302 178 147
is_linear=0
shrinkage=0.0786055


Tree=8
num_leaves=17
num_cat=0
split_feature=61 102 102 88 23 22 18 62 9 96 68 9 96 99 8 41
split_gain=0.118963 0.144372 0.12003 0.0924687 0.084397 0.133503 0.113941 0.0741742 0.0664827 0.0640263 0.0701749 0.0635077 0.0625736 0.0622703 0.0712795 0.0777323
threshold=0.0049903703468712687 7750876.7212043917 4786023.0741341999 4.8717225680203849e-05 0.79270483096123379 86205565.009989306 0.078244288486132643 6745597.042857144 0.027537341770494671 0.017250441159227786 0.01291272237586776 0.040615702191539253 0.0072520897360420266 1.6472098982179324 -0.011776557213932145 0.23643821276871843
decision_type=2 2 2 2 2 2 2 2 2 2 2 2 2 2 2 2
left_child=4 2 -2 -4 5 6 -1 12 -6 10 -3 -10 -5 -12 -15 -16
right_child=1 9 3 7 8 -7 -8 -9 11 -11 13 -13 -14 14 15 -17
leaf_value=0 -0.00011147529479110438 0 0 0 -0.00011477611336679085 0 0.005122431570776337 0.0010027084751020403 -0.001564410952952148 0.0027849906612224069 0 0 0.0040332039286643294 0 0 -0.0046682808213679731
leaf_weight=51 158 321 97 31 3945 194 71 269 434 35 31 230 207 40 40 86
leaf_count=51 158 321 97 31 3945 194 71 269 434 35 31 230 207 40 40 86
internal_value=3.64863e-06 0.000679608 0.0013955 0.00191861 -0.00016103 0.00103381 0.00308539 0.0023477 -0.000259885 -0.000166093 -0.00051659 -0.00100449 0.00353917 -0.00170317 -0.00239954 -0.00332791
internal_weight=6240 1315 762 604 4925 316 122 507 4609 553 518 664 238 197 166 126
internal_count=6240 1315 762 604 4925 316 122 507 4609 553 518 664 238 197 166 126
is_linear=0
shrinkage=0.0786055


Tree=9
num_leaves=17
num_cat=0
split_feature=120 90 23 11 74 18 90 123 101 21 121 120 43 12 22 22
split_gain=0.108805 0.0666442 0.0880771 0.0768995 0.093196 0.120238 0.0706002 0.0686896 0.058774 0.0564545 0.0504604 0.0428866 0.063915 0.0407747 0.0599173 0.0394987
threshold=0.00070174458935509448 42262.964728460567 3.9062209400501682 0.029593893174973299 5860932.8088888908 0.15380715563971267 218945.43806738631 0.016430274833231586 0.09747413034288234 55112083.333333336 0.0051011286447219051 8.79292689594418e-05 0.43715095898461725 0.075067913698728686 145839264.7177203 30753774.940611932
decision_type=2 2 2 2 2 2 2 2 2 2 2 2 2 2 2 2
left_child=1 2 3 9 5 13 7 8 -3 -1 -8 -10 -13 -5 -15 -2
right_child=15 6 -4 4 -6 -7 10 -9 11 -11 -12 12 -14 14 -16 -17
leaf_value=0.00071633973956839565 0 9.0983050230902018e-05 -0.0005209220303684527 0 -0.0010910479845215966 -0.00088556663442960852 -0.0019742320153934602 0.00016920455335281461 0 -0.00050247060143289565 0 0 0.0037969516740207552 0.0031170662166267872 0 0.0028555225887588859
leaf_weight=293 71 208 2563 107 74 69 120 1160 42 855 99 35 132 238 63 111
leaf_count=293 71 208 2563 107 74 69 120 1160 42 855 99 35 132 238 63 111
internal_value=3.46046e-06 -4.09028e-05 -0.000221485 0.000184375 0.00096703 0.00144984 0.000344232 0.000558854 0.00145555 -0.000123484 -0.000845043 0.00244004 0.00300587 0.00203588 0.00254049 0.00190675
internal_weight=6240 6058 4262 1699 551 477 1796 1577 417 1148 219 209 167 408 301 182
internal_count=6240 6058 4262 1699 551 477 1796 1577 417 1148 219 209 167 408 301 182
is_linear=0
shrinkage=0.0786055


Tree=10
num_leaves=17
num_cat=0
split_feature=120 22 41 91 27 27 10 17 9 27 40 22 23 15 27 14
split_gain=0.0962102 0.0945504 0.0919421 0.129472 0.0909813 0.124374 0.0704644 0.0678109 0.0815985 0.0759024 0.143489 0.0705839 0.0716194 0.0690653 0.0650732 0.0786092
threshold=0.00024945641640996364 61534888.675162889 0.21290739694941957 0.040984504242139924 1.5000000000000002 2.5000000000000004 0.097251361222382579 0.02696344272559523 0.045308895916207785 9.5000000000000018 0.014796299816187445 10293573.996000476 0.79270483096123379 1.191222777438351 11.500000000000002 18224833.279353093
decision_type=2 2 2 2 2 2 2 2 2 2 2 2 2 2 2 2
left_child=4 2 -2 -4 6 -6 -1 13 9 10 11 -9 -13 -7 15 -11
right_child=1 -3 3 -5 5 7 -8 8 -10 14 -12 12 -14 -15 -16 -17
leaf_value=0.00048973916369253869 -0.0001601067865443504 0.0023151312762666938 0.0034727574874350298 0 -0.0014876645514450588 0.0016885245795106073 0.0054902988746591995 0 0.00082957104583957744 -0.00013725428707898955 0.0036706685486247847 0 -0.0025251367442992939 0 -0.0016859783213104879 0.0025038437181680207
leaf_weight=405 554 201 115 66 443 155 24 81 138 73 22 51 435 3291 82 104
leaf_count=405 554 201 115 66 443 155 24 81 138 73 22 51 435 3291 82 104
internal_value=5.45545e-06 0.000751492 0.000217525 0.0018027 -0.000111525 -0.000221195 0.000952814 -7.6981e-05 -0.000660075 -0.00099446 -0.00148989 -0.00182839 -0.00219023 6.727e-05 0 0.000975514
internal_weight=6240 936 735 181 5304 4875 429 4432 986 848 589 567 486 3446 259 177
internal_count=6240 936 735 181 5304 4875 429 4432 986 848 589 567 486 3446 259 177
is_linear=0
shrinkage=0.0786055


Tree=11
num_leaves=17
num_cat=0
split_feature=61 123 70 114 12 27 27 27 27 27 91 116 15 116 10 118
split_gain=0.0871522 0.114621 0.104737 0.0899445 0.0772474 0.0701525 0.102071 0.124893 0.110938 0.120056 0.106913 0.0983894 0.0876345 0.0688806 0.0624827 0.0549459
threshold=0.0049903703468712687 0.015736391082115459 7528303.8278061235 429168.49105224485 0.13637568938543371 11.500000000000002 9.5000000000000018 7.5000000000000009 4.5000000000000009 1.5000000000000002 0.0061149958387356042 9.9712522398831262e-05 4.3637952750801743 0.00028203881224819148 0.082713744556797184 250735.93929767373
decision_type=2 2 2 2 2 2 2 2 2 2 2 2 2 2 2 2
left_child=5 2 3 -2 -5 6 7 8 9 14 -9 -8 -10 -3 -1 -15
right_child=1 13 -4 4 -6 -7 11 10 12 -11 -12 -13 -14 15 -16 -17
leaf_value=5.1656074459036716e-05 0 -0.0012293636955605636 0 0.0041218521020453284 0 -0.0010775258618060184 0.0014246027379339497 -0.0017970062409218802 0.0012193399493111079 -0.00084746946527755346 0 -0.00011530551921276373 0 -0.00026157202506376016 0.0033413075364427175 0.00097907941648153838
leaf_weight=347 62 184 106 167 45 446 522 498 650 1152 335 339 586 261 50 490
leaf_count=347 62 184 106 167 45 446 522 498 650 1152 335 339 586 261 50 490
internal_value=6.49169e-06 0.000586405 0.0017465 0.00256715 0.00333706 -0.000132541 -2.1016e-05 -0.000220798 4.28647e-06 -0.000409964 -0.00106672 0.0007279 0.000586458 3.14059e-05 0.00066323 0.000444211
internal_weight=6240 1315 380 274 212 4925 4479 3618 2785 1549 833 861 1236 935 397 751
internal_count=6240 1315 380 274 212 4925 4479 3618 2785 1549 833 861 1236 935 397 751
is_linear=0
shrinkage=0.0786055


Tree=12
num_leaves=17
num_cat=0
split_feature=121 21 21 41 79 27 27 23 17 9 4 9 16 23 12 21
split_gain=0.0781426 0.074388 0.0689332 0.0658894 0.141793 0.0628311 0.0987137 0.0705892 0.0618649 0.0768624 0.0532082 0.0622428 0.0531681 0.0524787 0.0583863 0.0965786
threshold=0.0041396472752031474 361504696.66666675 411685066.66666669 0.21290739694941957 1.4129832208002882 1.5000000000000002 2.5000000000000004 3.2311131439972867 0.027740960848252876 0.045308895916207785 0.068443087957394885 0.027537341770494671 -0.0016033574906127333 3.7288635361074749 0.075067913698728686 411685066.66666669
decision_type=2 2 2 2 2 2 2 2 2 2 2 2 2 2 2 2
left_child=5 3 -3 -2 -5 7 -7 -1 13 10 11 -10 -13 14 -8 -16
right_child=1 2 -4 4 -6 6 8 -9 9 -11 -12 12 -14 -15 15 -17
leaf_value=0.0023160559268949701 0 0.0052975476679384794 0 0.0037842967029899201 0 -0.0013416049890393473 0 0 0 0.00075413873296263873 0.00056369413573504202 -0.0004547432649522855 -0.0026674284951428056 -0.00012659668632907382 0.0021376608865376601 -2.8136011204385072e-05
leaf_weight=128 722 43 68 96 163 438 711 288 225 137 53 234 248 2297 275 114
leaf_count=128 722 43 68 96 163 438 711 288 225 137 53 234 248 2297 275 114
internal_value=3.92234e-06 0.000619337 0.00265743 0.000308954 0.00139011 -0.000111499 -0.000206094 0.000776982 -7.20826e-05 -0.000661111 -0.00101883 -0.00124773 -0.00175528 6.05401e-05 0.000522104 0.00130296
internal_weight=6240 1092 111 981 259 5148 4732 416 4294 897 760 707 482 3397 1100 389
internal_count=6240 1092 111 981 259 5148 4732 416 4294 897 760 707 482 3397 1100 389
is_linear=0
shrinkage=0.0786055


Tree=13
num_leaves=17
num_cat=0
split_feature=120 90 90 24 27 27 27 17 113 23 27 13 14 18 16 17
split_gain=0.0709035 0.0468359 0.0633776 0.0598983 0.0520688 0.083799 0.0964126 0.0675374 0.0659894 0.0556919 0.0915831 0.0836799 0.0674089 0.0792383 0.0565676 0.050238
threshold=0.00070174458935509448 42262.964728460567 218945.43806738631 79.566474438752195 7.5000000000000009 9.5000000000000018 11.500000000000002 0.026586171802473562 0.0043404747510164387 4.9392921933867937 4.5000000000000009 37598571.42857144 13418963.414899427 0.053740443954226606 -0.0067446977092869903 0.03641169812211615
decision_type=2 2 2 2 2 2 2 2 2 2 2 2 2 2 2 2
left_child=1 3 -3 4 9 7 8 -6 -7 10 14 -11 13 -13 -1 -12
right_child=-2 2 -4 -5 5 6 -8 -9 -10 11 15 12 -14 -15 -16 -17
leaf_value=0.0015738638395396453 0.0015420959677740487 0.00049785135601800468 -0.00083689098754107145 0.00085265507196797944 -0.00074326942292532439 0.0010445271907537689 -0.0011445293791889596 -0.0032319954647833829 -0.00057849376045371543 0.0001713924223629888 0.0014327223149478436 0 -0.00015863655075572681 -0.003324420859768213 -0.00048169596557280729 -0.00011083267357854979
leaf_weight=84 182 1577 219 286 566 437 360 119 173 460 475 76 328 147 692 59
leaf_count=84 182 1577 219 286 566 437 360 119 173 460 475 76 328 147 692 59
internal_value=4.43834e-06 -2.89318e-05 0.000291662 -0.000182316 -0.000276387 -0.000614724 -5.74657e-05 -0.00128993 0.000456499 -1.54331e-06 0.000301729 -0.000471552 -0.00114959 -0.0022569 -0.000158546 0.00111633
internal_weight=6240 6058 1796 4262 3976 1655 970 685 610 2321 1310 1011 551 223 776 534
internal_count=6240 6058 1796 4262 3976 1655 970 685 610 2321 1310 1011 551 223 776 534
is_linear=0
shrinkage=0.0786055


Tree=14
num_leaves=17
num_cat=0
split_feature=61 72 112 99 121 17 104 16 100 118 27 27 27 107 117 27
split_gain=0.0635096 0.111943 0.103529 0.100086 0.085169 0.0693062 0.0674014 0.0637542 0.0609739 0.093422 0.0506017 0.0749421 0.0915469 0.0825908 0.0795566 0.0768922
threshold=0.0049903703468712687 0.0090586733833421529 0.0028328425108851856 1.7359448470078507 0.0089448458547977099 0.02104366404270154 0.012101748934289324 -0.0046597419476762875 0.0067550576766705747 547763.02417053527 11.500000000000002 9.5000000000000018 7.5000000000000009 1.0270810792766094 0.0012676157602445979 4.5000000000000009
decision_type=2 2 2 2 2 2 2 2 2 2 2 2 2 2 2 2
left_child=10 8 5 4 -4 -3 7 -7 -2 -10 11 12 15 -14 -13 -1
right_child=1 2 3 -5 -6 6 -8 -9 9 -11 -12 14 13 -15 -16 -17
leaf_value=-0.00034373550470720888 0 0.0010961193516910192 0.0037530121848596337 0 0 0 0 -0.0024176082535262255 0.00359962761695682 0 -0.0009196706067221798 0.001254016093585899 -0.0016141975888868416 0 -0.0001182330747156347 0.00048607734948799889
leaf_weight=1549 123 82 112 285 49 42 212 230 152 28 446 520 464 369 341 1236
leaf_count=1549 123 82 112 285 49 42 212 230 152 28 446 520 464 369 341 1236
internal_value=9.56645e-07 0.000498029 2.14458e-05 0.000987335 0.00255667 -0.000602093 -0.00105098 -0.00186958 0.00183199 0.00278192 -0.000115955 -1.85017e-05 -0.000192034 -0.000916015 0.000620127 0
internal_weight=6240 1315 1012 446 161 566 484 272 303 180 4925 4479 3618 833 861 2785
internal_count=6240 1315 1012 446 161 566 484 272 303 180 4925 4479 3618 833 861 2785
is_linear=0
shrinkage=0.0786055


Tree=15
num_leaves=17
num_cat=0
split_feature=29 123 16 121 114 70 69 27 27 27 27 27 91 116 20 16
split_gain=0.0627973 0.100698 0.0546048 0.0495945 0.0487076 0.055728 0.0628577 0.0477973 0.0800035 0.0691955 0.0739728 0.0911799 0.0881126 0.0638957 0.0529875 0.0828801
threshold=0.0051435315688088687 0.015736391082115459 -0.0069463876091600428 0.0053926100030914021 376005.54546071595 7561247.0880952394 0.091965417209838099 1.5000000000000002 4.5000000000000009 7.5000000000000009 9.5000000000000018 11.500000000000002 0.0086603795919714538 8.1237586988985896e-05 0.12865613016759461 -0.0043154269089711759
decision_type=2 2 2 2 2 2 2 2 2 2 2 2 2 2 2 2
left_child=7 4 3 -3 -2 6 -6 -1 14 -10 12 13 -11 -12 -9 -16
right_child=1 2 -4 -5 5 -7 -8 8 9 10 11 -13 -14 -15 15 -17
leaf_value=0.00067066795945365336 0 0 -0.00021980983755109666 0.0027601513159673016 0 0 0.0034791343839397837 -0.00025255003276056676 0.00045722357717100075 -0.0014018404854250445 0.0011989921559308037 -0.00079779193566995943 4.9520159852432113e-05 0 0 -0.0023537563143769991
leaf_weight=407 53 53 688 80 42 82 164 795 1288 588 472 444 288 400 134 262
leaf_count=407 53 53 688 80 42 82 164 795 1288 588 472 444 288 400 134 262
internal_value=6.76142e-07 0.000533684 0 0.00151139 0.00167156 0.00208627 0.00278463 -0.000105961 -0.00019033 0 -0.000268686 4.96799e-05 -0.000835821 0.00057059 -0.000746366 -0.0015406
internal_weight=6240 1162 821 133 341 288 206 5078 4671 3480 2192 1316 876 872 1191 396
internal_count=6240 1162 821 133 341 288 206 5078 4671 3480 2192 1316 876 872 1191 396
is_linear=0
shrinkage=0.0786055


Tree=16
num_leaves=17
num_cat=0
split_feature=121 22 15 22 17 16 27 112 18 14 18 14 22 89 27 74
split_gain=0.053443 0.0654272 0.0503361 0.130298 0.0611026 0.0494905 0.0783279 0.0942834 0.0530678 0.0591751 0.0447059 0.0416141 0.0444924 0.0503348 0.0378824 0.042458
threshold=0.0041396472752031474 34024428.13633237 1.191222777438351 86205565.009989306 0.027740960848252876 -0.0041057069009330137 8.5000000000000018 0.0035403330370591735 0.18491934254822565 6351766.5629953286 0.076924356447856598 12541282.604690196 11578261.953406269 0.00098702748436628137 10.500000000000002 38111886.732777782
decision_type=2 2 2 2 2 2 2 2 2 2 2 2 2 2 2 2
left_child=2 -2 3 10 -4 11 7 8 9 -7 -1 12 -6 -14 15 -3
right_child=1 14 4 -5 5 6 -8 -9 -10 -11 -12 -13 13 -15 -16 -17
leaf_value=0 1.8017104773773882e-05 0.0021639572975479531 -3.1133848144401887e-05 -6.5330755908791304e-05 0 0 0 2.4395524565870765e-05 0 -0.0031907874613140508 0.0034066342900151403 0.0008260677270337998 -0.0039727747313987429 0 0 0
leaf_weight=48 777 253 3866 298 58 22 180 48 28 255 110 168 46 21 35 27
leaf_count=48 777 253 3866 298 58 22 180 48 28 255 110 168 46 21 35 27
internal_value=0 0.000510825 -9.37306e-05 0.000659181 -0.000183527 -0.000802345 -0.00125344 -0.00193452 -0.00249802 -0.0028379 0.00251716 0 -0.00106666 -0.00249296 0.00147861 0.0018152
internal_weight=6240 1092 5148 456 4692 826 533 353 305 277 158 293 125 67 315 280
internal_count=6240 1092 5148 456 4692 826 533 353 305 277 158 293 125 67 315 280
is_linear=0
shrinkage=0.0786055


Tree=17
num_leaves=17
num_cat=0
split_feature=29 43 72 96 21 19 10 41 23 22 18 21 12 79 122 10
split_gain=0.0506836 0.0741833 0.054944 0.0586905 0.0534252 0.0514442 0.0437946 0.0467664 0.0415368 0.0823553 0.0715929 0.0434132 0.0759288 0.0411075 0.0426405 0.0352221
threshold=0.0051435315688088687 1.2899965967450824 0.011940931477855949 0.0072520897360420266 523090866.66666669 -0.10936501606947489 0.069384455475449011 0.21218319163144508 0.79270483096123379 86205565.009989306 0.078244288486132643 502459933.33333343 0.13977348191745145 1.3009267634108155 188867.20011084611 0.11289455457215451
decision_type=2 2 2 2 2 2 2 2 2 2 2 2 2 2 2 2
left_child=8 2 3 -2 -5 -3 7 -7 9 10 -1 15 -13 14 -9 -10
right_child=1 5 -4 4 -6 6 -8 13 11 -11 -12 12 -14 -15 -16 -17
leaf_value=0 0 0.0016323024188697318 0 0.0037335560866141341 0 0 -0.00083952861867018808 0.004370081336911095 -0.00014767373205331173 0 0.003971731807746846 -0.0030610933637517657 0 0 0 0.0011695764289669311
leaf_weight=51 66 115 79 126 24 298 348 44 4434 194 71 88 121 41 21 119
leaf_count=51 66 115 79 126 24 298 348 44 4434 194 71 88 121 41 21 119
internal_value=3.4636e-07 0.000480345 0.00156855 0.00222042 0.00308427 2.00247e-05 -0.000123209 0.000301106 -9.4159e-05 0.000735607 0.00235936 -0.000165603 -0.00130613 0.00175144 0.00298279 -9.60965e-05
internal_weight=6240 1162 295 216 150 867 752 404 5078 316 122 4762 209 106 65 4553
internal_count=6240 1162 295 216 150 867 752 404 5078 316 122 4762 209 106 65 4553
is_linear=0
shrinkage=0.0786055


Tree=18
num_leaves=17
num_cat=0
split_feature=80 39 101 19 20 37 39 78 24 27 40 106 22 23 17 23
split_gain=0.0471228 0.0609016 0.0504876 0.047311 0.0709551 0.061168 0.0498069 0.0820311 0.063206 0.0466232 0.0786469 0.0422854 0.0381119 0.0913457 0.0565794 0.0527791
threshold=0.0012253624959280354 1.3305669447191721 0.094259548408568303 -0.10936501606947489 0.14653189087538557 0.21577080402414997 1.9044419405411703 4169656.9806618835 43.790574961994338 6.5000000000000009 0.011943532412480654 5171740.268455388 118664291.95821939 0.87337360246555307 0.02743932532002449 0.61191026984739272
decision_type=2 2 2 2 2 2 2 2 2 2 2 2 2 2 2 2
left_child=12 2 -2 -3 -5 6 11 -8 -9 10 -4 -6 13 15 -14 -1
right_child=1 3 9 4 5 -7 7 8 -10 -11 -12 -13 14 -15 -16 -17
leaf_value=0 0 0.0015864331127718812 0.0044915093851964471 0.00045882522445079129 -0.0024707264760940066 0.00069168846500884348 0 0 -0.0044244713899760559 0 0 0.00016180759246474903 0 -0.00013169495350290328 -0.001790603391592707 0.002511738317400035
leaf_weight=110 126 115 84 531 42 66 40 51 96 88 58 153 109 4243 198 130
leaf_count=110 126 115 84 531 42 66 40 51 96 88 58 153 109 4243 198 130
internal_value=0 0.000404102 0.00131038 3.78403e-05 -6.47005e-05 -0.00085903 -0.00133101 -0.00229388 -0.00318385 0.00200316 0.0029195 -7.34302e-06 -0.000106526 -3.03635e-05 -0.000964476 0.00143564
internal_weight=6240 1450 356 1094 979 448 382 187 147 230 142 195 4790 4483 307 240
internal_count=6240 1450 356 1094 979 448 382 187 147 230 142 195 4790 4483 307 240
is_linear=0
shrinkage=0.0786055


Tree=19
num_leaves=17
num_cat=0
split_feature=90 23 11 74 18 21 11 18 123 117 62 122 118 27 27 43
split_gain=0.0452621 0.0481104 0.0476862 0.0740826 0.0853286 0.0373537 0.0357466 0.039206 0.0349662 0.0446919 0.0434065 0.0395698 0.0388409 0.0463046 0.0437707 0.0753073
threshold=42586.328709051326 3.9262509122908891 0.029593893174973299 5860932.8088888908 0.15380715563971267 55112083.333333336 0.0095466273482394132 0.0657228528395815 0.016430274833231586 0.0056943719981840746 6126072.1714285715 282417.73604504572 229672.75330000636 10.500000000000002 7.5000000000000009 2.0086140102810335
decision_type=2 2 2 2 2 2 2 2 2 2 2 2 2 2 2 2
left_child=1 2 5 4 -4 -1 -3 -8 10 11 -2 -10 -11 14 -14 -16
right_child=8 6 3 -5 -6 -7 7 -9 9 12 -12 -13 13 -15 15 -17
leaf_value=0.00060274647044161029 0.0021015334482573306 -3.2887305764116072e-05 0.001717340207118204 -0.00092393663422700423 -0.00062216699596370729 -0.00038209982269632209 -0.0001141427869086935 -0.0012194448179753371 0 -2.5813305548141254e-05 0.00013367389298802828 -0.0013579789625925104 0.00049449180540451262 -0.0001933593433456719 0 0.0045376191664067735
leaf_weight=299 154 1447 415 83 69 868 616 519 742 136 318 152 266 44 42 70
leaf_count=299 154 1447 415 83 69 868 616 519 742 136 318 152 266 44 42 70
internal_value=2.69266e-06 -0.000125817 0.000164844 0.000771006 0.00122279 -6.29684e-05 -0.00035119 -0.000688294 0.000331452 7.95105e-05 0.000941204 -0.000200868 0.000668253 0.00107644 0.00143031 0.00295458
internal_weight=6240 4316 1734 567 484 1167 2582 1135 1924 1452 472 894 558 422 378 112
internal_count=6240 4316 1734 567 484 1167 2582 1135 1924 1452 472 894 558 422 378 112
is_linear=0
shrinkage=0.0786055


Tree=20
num_leaves=17
num_cat=0
split_feature=40 123 70 114 14 22 20 121 69 106 59 9 12 22 20 13
split_gain=0.041417 0.0874858 0.0659766 0.0734124 0.0463933 0.0540127 0.0581772 0.0369023 0.0755513 0.0486619 0.0405577 0.0361403 0.0360351 0.0346433 0.0337593 0.0597657
threshold=0.0048805559783669621 0.015736391082115459 7488828.813950303 395091.99886646535 12795117.562538186 115307385.65747596 0.15898130074375444 0.0042686429620325756 0.15600244525440207 35816219.852417029 0.0042289588310371199 0.028418266321051308 0.13637568938543371 9729066.8475385252 0.07669913605938404 54391442.857142866
decision_type=2 2 2 2 2 2 2 2 2 2 2 2 2 2 2 2
left_child=4 2 3 -2 13 6 -6 8 -3 -10 -9 -7 -5 -1 -15 -16
right_child=1 7 -4 12 5 11 -8 10 9 -11 -12 -13 -14 14 15 -17
leaf_value=-1.4081624174621485e-05 0 0 0 0.0023133535560313358 0 0 0.0010939597049571049 0.001108391733777617 -0.0024160492302328831 0 0 -0.0016463978374260224 0 -2.9250923615282745e-05 0 -0.0020554502202380135
leaf_weight=890 112 838 177 335 1358 94 403 296 151 22 486 164 43 382 216 273
leaf_count=890 112 838 177 335 1358 94 403 296 151 22 486 164 43 382 216 273
internal_value=0 0.000262168 0.00103136 0.00150982 -0.000151547 7.34517e-05 0.00026427 0 -0.00033693 -0.00183277 0.000380477 -0.000926583 0.0020382 -0.000453737 -0.000813464 -0.0012666
internal_weight=6240 2460 667 490 3780 2019 1761 1793 1011 173 782 258 378 1761 871 489
internal_count=6240 2460 667 490 3780 2019 1761 1793 1011 173 782 258 378 1761 871 489
is_linear=0
shrinkage=0.0786055


Tree=21
num_leaves=17
num_cat=0
split_feature=77 63 19 9 9 12 39 119 93 90 13 13 20 17 8 122
split_gain=0.0376139 0.051093 0.0504498 0.0401188 0.0557346 0.0428297 0.035764 0.0943406 0.0495546 0.0342335 0.0301341 0.0280222 0.0290087 0.0353327 0.0329257 0.0246073
threshold=0.011107663416981517 2.4503686087472105 0.20164057682854078 0.02635281858928407 0.040615702191539253 0.08786744744817758 1.3572598930929796 0.054631923884356358 0.0059525879091296167 76389.546030009529 523378857.14285725 50222921.42857144 0.21570902860348248 0.027740960848252876 0.011248851839094522 282417.73604504572
decision_type=2 2 2 2 2 2 2 2 2 2 2 2 2 2 2 2
left_child=3 2 -2 5 6 9 8 -8 11 -1 -6 -5 13 -13 -15 -7
right_child=1 -3 -4 4 10 15 7 -9 -10 -11 -12 12 -14 14 -16 -17
leaf_value=-0.00014465283100085677 0.0028496066858880306 0 0 0 0.0010279716004676898 0.00072933318962735286 -0.0031893034778777843 0 0.0012324632245890989 0.00055369744711094866 -0.00021932541768708013 0 0 -0.0026059699345867132 0 -0.00010225856899742125
leaf_weight=3299 105 119 23 110 201 806 127 166 83 480 122 128 197 149 30 95
leaf_count=3299 105 119 23 110 201 806 127 166 83 480 122 128 197 149 30 95
internal_value=0 0.000957092 0.00205676 -3.16906e-05 -0.000423997 6.17347e-05 -0.000744085 -0.00155668 -0.000290475 -3.53147e-05 0.000315851 -0.000623456 -0.000903852 -0.00138726 -0.00212561 0.000555186
internal_weight=6240 247 128 5993 1313 4680 990 293 697 3779 323 614 504 307 179 901
internal_count=6240 247 128 5993 1313 4680 990 293 697 3779 323 614 504 307 179 901
is_linear=0
shrinkage=0.0786055


Tree=22
num_leaves=17
num_cat=0
split_feature=120 122 74 100 41 115 74 93 78 104 93 13 86 77 109 18
split_gain=0.0352531 0.0286257 0.0945809 0.0384933 0.0828677 0.101972 0.0651187 0.0504106 0.0370112 0.0356285 0.0935027 0.0524344 0.0472185 0.0408672 0.0379584 0.0376189
threshold=0.0008150495821036231 1196374.955062943 36487117.394166671 0.012408376212490215 0.21503607649940623 0.11690674282402276 7176064.3942413991 0.010041554557542671 8438355.3982724845 0.0092708532825630952 0.0050773408199245281 61169457.142857149 107743.31300160679 0.0082268736008350076 0.0054152595641569464 0.084181045172401339
decision_type=2 2 2 2 2 2 2 2 2 2 2 2 2 2 2 2
left_child=1 2 3 4 9 -6 -5 -8 -7 10 -1 12 15 14 -12 -11
right_child=-2 -3 -4 6 5 8 7 -9 -10 11 13 -13 -14 -15 -16 -17
leaf_value=-7.2488260889279921e-05 0.0011712428440090394 -0.0016518949189716736 0.0029488562929644579 6.4147994077890134e-05 -0.00039180262196916477 0.00314624589044843 -0.0022837512531994732 0 0 0 0 0 0 0 0.0025561086488780763 -0.0030275834972722741
leaf_weight=4754 156 66 66 117 55 136 184 27 30 46 21 152 85 68 159 118
leaf_count=4754 156 66 66 117 55 136 184 27 30 46 21 152 85 68 159 118
internal_value=0 -2.43966e-05 0 -3.93505e-05 0 0.00149973 -0.000867697 -0.00175311 0.0025952 -5.20339e-05 0 -0.000765018 -0.00149756 0.0014925 0.00211426 -0.00227628
internal_weight=6240 6084 6018 5952 5624 221 328 211 166 5403 5002 401 249 248 180 164
internal_count=6240 6084 6018 5952 5624 221 328 211 166 5403 5002 401 249 248 180 164
is_linear=0
shrinkage=0.0786055


Tree=23
num_leaves=17
num_cat=0
split_feature=90 23 8 74 17 8 17 24 19 100 41 75 69 123 104 87
split_gain=0.0310191 0.0398144 0.0349158 0.0673282 0.0751939 0.0312381 0.0409439 0.0303002 0.0302765 0.0422125 0.0643475 0.111824 0.0605462 0.0373559 0.0365504 0.0353782
threshold=42586.328709051326 3.9262509122908891 0.0041531203259717363 5860932.8088888908 0.040378110726465695 0.0013573351520744 0.017577875024134684 77.621231848442335 -0.10936501606947489 0.012408376212490215 0.21503607649940623 1.9776811248537094 0.2221474773521562 0.016430274833231586 0.011800013792949223 0.024324579097417399
decision_type=2 2 2 2 2 2 2 2 2 2 2 2 2 2 2 2
left_child=1 2 -1 4 -4 -3 -7 -8 -2 10 13 -12 14 -10 -11 -13
right_child=8 5 3 -5 -6 6 7 -9 9 12 11 15 -14 -15 -16 -17
leaf_value=-3.5568492472582011e-05 0.0015791350704838251 -1.6864469560886033e-05 0.0015467457664434636 -0.00094680769169564849 -0.00075931737798379099 -8.0406478797357152e-05 -0.0014255038805255707 0 0.00082359236628625507 0 0 0.0073634458884117935 0.0008209829076070203 -9.2234108036826255e-05 -0.0019240149486546663 0
leaf_weight=1162 116 1447 428 84 60 644 437 54 341 29 135 27 61 1002 184 29
leaf_count=1162 116 1447 428 84 60 644 437 54 341 29 135 27 61 1002 184 29
internal_value=0 -0.000111003 0.000150973 0.000666021 0.00110346 -0.000317113 -0.000631206 -0.00119476 0.00026827 0.000140954 0.000336585 0.00171513 -0.000669677 8.23563e-05 -0.0014624 0.00472453
internal_weight=6240 4316 1734 572 488 2582 1135 491 1924 1808 1534 191 274 1343 213 56
internal_count=6240 4316 1734 572 488 2582 1135 491 1924 1808 1534 191 274 1343 213 56
is_linear=0
shrinkage=0.0786055


Tree=24
num_leaves=17
num_cat=0
split_feature=29 123 27 27 94 22 15 21 10 13 2 121 27 38 119 118
split_gain=0.0313323 0.0609028 0.0365405 0.0687606 0.04193 0.0373797 0.0576087 0.0520038 0.0372856 0.0355172 0.0339459 0.0289577 0.028635 0.0300441 0.0279484 0.0381652
threshold=0.0051435315688088687 0.015736391082115459 1.5000000000000002 2.5000000000000004 6491616.6142857159 118664291.95821939 2.5796759525574906 502459933.33333343 0.097251361222382579 474954928.5714286 0.030508166918635563 0.0047298439773699229 10.500000000000002 5445242.0884353751 0.01371983038348696 328729.65132205427
decision_type=2 2 2 2 2 2 2 2 2 2 2 2 2 2 2 2
left_child=2 10 8 4 -4 6 -5 -7 -1 -9 14 -3 13 -13 -2 -16
right_child=1 11 3 5 -6 7 -8 9 -10 -11 -12 12 -14 -15 15 -17
leaf_value=0.00019780072358442787 0 -0.00043761063710780939 -0.0015352348705105834 0.0008026186976768313 0 0 -9.5442852532777431e-05 0 0.0040372075573633448 -0.0030267082921438039 0 0 -0.0005402743485068553 0.001276208090509236 0.0031285733985581365 0
leaf_weight=385 69 431 334 503 61 169 3494 25 22 85 118 69 48 273 118 36
leaf_count=385 69 431 334 503 61 169 3494 25 22 85 118 69 48 273 118 36
internal_value=0 0.00037318 -7.90746e-05 -0.000154774 -0.00115648 -4.39831e-05 0 -0.000925757 0.000598074 -0.00225594 0.00125598 0 0.000496973 0.000870448 0.00183074 0.00244381
internal_weight=6240 1162 5078 4671 395 4276 3997 279 407 110 341 821 390 342 223 154
internal_count=6240 1162 5078 4671 395 4276 3997 279 407 110 341 821 390 342 223 154
is_linear=0
shrinkage=0.0786055


Tree=25
num_leaves=17
num_cat=0
split_feature=3 120 23 11 34 11 123 112 12 24 102 122 24 23 20 24
split_gain=0.0307982 0.024314 0.0188912 0.0308266 0.0331666 0.0281884 0.0377786 0.0235761 0.022721 0.0225673 0.0288358 0.0196933 0.0188672 0.0303499 0.0332724 0.0231257
threshold=-0.0020576277519791515 0.00070174458935509448 5.7969957777865178 -0.044109444289625759 5934861.0982142864 0.012997246703691958 0.041908461041904911 0.0020741025832810346 0.18430195552610243 77.344490005229233 5469294.0886904774 480382.21811472869 52.986792895759713 4.9655365191214829 0.1491391246589992 72.549635174306275
decision_type=2 2 2 2 2 2 2 2 2 2 2 2 2 2 2 2
left_child=1 12 3 4 8 -4 -7 -5 -2 10 -9 -12 -1 -14 -15 -16
right_child=2 -3 5 7 -6 6 -8 9 -10 -11 11 -13 13 14 15 -17
leaf_value=0.00033925536151641197 -0.0021059906831227856 0.0018724940335461591 0 0 0 -0.0012101426362986813 0 0 0 0 0.0018200708997953162 0 0.00022162550284488621 0 -0.002253053130070664 0
leaf_weight=1431 118 62 617 1922 50 407 227 42 37 66 180 22 615 323 100 21
leaf_count=1431 118 62 617 1922 50 407 227 42 37 66 180 22 615 323 100 21
internal_value=0 0.00021537 -0.000139641 0 -0.000933263 -0.000388299 -0.000756394 7.26904e-05 -0.00157244 0.000712544 0.00110277 0.00153303 0.000142711 -4.93187e-05 -0.000599992 -0.0017369
internal_weight=6240 2552 3688 2437 205 1251 634 2232 155 310 244 202 2490 1059 444 121
internal_count=6240 2552 3688 2437 205 1251 634 2232 155 310 244 202 2490 1059 444 121
is_linear=0
shrinkage=0.0786055


Tree=26
num_leaves=17
num_cat=0
split_feature=3 32 27 87 118 27 104 100 58 9 36 27 27 122 61 63
split_gain=0.0266699 0.0240777 0.0345444 0.0393487 0.0300142 0.0174273 0.0383414 0.056127 0.0253979 0.0249896 0.0254943 0.0232659 0.0221291 0.021035 0.0282139 0.0267766
threshold=-0.0020576277519791515 0.0064941571666360829 6.5000000000000009 0.059488486582662307 71178.688576183442 4.5000000000000009 0.010021510304868484 0.0075454895977532044 21364.114760998837 0.039124000473342302 0.0096027517494297939 7.5000000000000009 1.5000000000000002 268509.27221331326 0.003111402758413919 1.8669605800083706
decision_type=2 2 2 2 2 2 2 2 2 2 2 2 2 2 2 2
left_child=1 -1 3 4 -3 6 7 12 11 10 -8 -7 -2 14 -10 -16
right_child=5 2 -4 -5 -6 8 9 -9 13 -11 -12 -13 -14 -15 15 -17
leaf_value=9.4550450674271344e-06 4.0522094179993098e-05 0 0 0 0.0019039576572048723 0.00012288685128606353 0 0.0017984551601929882 0 0 -0.0025375632698752706 -0.00037777313048810896 -0.00061338381853465022 0 0.0020564129811792499 0
leaf_weight=1868 240 38 332 68 246 764 22 76 175 44 110 1224 657 161 138 77
leaf_count=1868 240 38 332 68 246 764 22 76 175 44 110 1224 657 161 138 77
internal_value=0 0.000199583 0.00060482 0.00114752 0.00157721 -0.00013083 -0.000385538 -0.000103351 0 -0.00150188 -0.00204332 -0.000146181 -0.000351598 0.000455685 0.000791502 0.00139511
internal_weight=6240 2552 684 352 284 3688 1149 973 2539 176 132 1988 897 551 390 215
internal_count=6240 2552 684 352 284 3688 1149 973 2539 176 132 1988 897 551 390 215
is_linear=0
shrinkage=0.0786055


Tree=27
num_leaves=17
num_cat=0
split_feature=15 22 15 35 14 18 18 19 22 21 27 104 100 27 99 99
split_gain=0.0263064 0.0902955 0.0519218 0.0441164 0.0367229 0.0348839 0.0334851 0.027343 0.0762264 0.0641696 0.0397987 0.073907 0.113708 0.0512905 0.0700745 0.0460735
threshold=1.191222777438351 86205565.009989306 1.5518384732239461 0.27751704624720991 87088002.15541251 0.078244288486132643 0.13614777893572116 -0.089081981694019693 17383495.316653337 64081016.666666679 4.5000000000000009 0.01012199413795249 0.0075716645796418489 6.5000000000000009 0.59500674520220087 2.1453506979750192
decision_type=2 2 2 2 2 2 2 2 2 2 2 2 2 2 2 2
left_child=1 5 -2 4 6 -1 -3 8 9 -4 11 12 -9 14 -12 -13
right_child=2 3 7 -5 -6 -7 -8 10 -10 -11 13 15 -14 -15 -16 -17
leaf_value=0 -0.0013732599751681651 -0.0025823564129928297 0.00047057792817921178 0.002233346922421317 0 0.0028366476534072904 0 -0.00037441194433270145 0.0016404121802404547 -0.0020568405324429767 -0.00015346314644171637 -0.0027345060732871058 0.002316375369596019 -6.9048712760374546e-05 0.0011382136501139888 0
leaf_weight=51 175 78 146 37 167 115 32 1290 231 87 302 128 101 2649 580 71
leaf_count=51 175 78 146 37 167 115 32 1290 231 87 302 128 101 2649 580 71
internal_value=0 0.000564609 -4.05694e-05 0 -0.00056129 0.00206864 -0.00168901 0 0.000578919 -0.000139633 -5.11347e-05 -0.000386753 -0.000122805 7.79375e-05 0.000607661 -0.00183905
internal_weight=6240 480 5760 314 277 166 110 5585 464 233 5121 1590 1391 3531 882 199
internal_count=6240 480 5760 314 277 166 110 5585 464 233 5121 1590 1391 3531 882 199
is_linear=0
shrinkage=0.0786055


Tree=28
num_leaves=17
num_cat=0
split_feature=27 15 22 23 18 23 74 16 14 20 27 20 23 18 20 31
split_gain=0.0238897 0.0293268 0.0726973 0.0699135 0.0437221 0.0501493 0.0629349 0.0347621 0.0450336 0.0417558 0.0386318 0.0656131 0.0871746 0.0488788 0.0385482 0.0384556
threshold=11.500000000000002 1.191222777438351 145839264.7177203 1.3681466307050127 0.15380715563971267 0.61191026984739272 5726327.4929761915 -0.0041057069009330137 12334530.910797054 0.16901069220228157 4.5000000000000009 0.14553931503667325 3.5343576463111064 0.18153019488900876 0.22759104328038238 3.1820242745535721
decision_type=2 2 2 2 2 2 2 2 2 2 2 2 2 2 2 2
left_child=1 2 4 -3 5 -1 -7 8 14 -10 11 -9 -13 -14 -5 -11
right_child=-2 3 -4 7 -6 6 -8 10 9 15 -12 12 13 -15 -16 -17
leaf_value=0 -0.00050729593673534093 -0.0022088630120538524 -0.0004389683967822624 0.00026968706241440351 0 0.0036805667681299647 0 -3.4829234009406655e-05 0 0.0021157591683479528 0.00010668094002680085 3.3506636090205242e-05 -0.002730854980900308 0 -0.0016672645141189042 0
leaf_weight=116 515 87 142 288 39 117 39 1120 195 221 2945 75 195 31 78 37
leaf_count=116 515 87 142 288 39 117 39 1120 195 221 2945 75 195 31 78 37
internal_value=0 5.12514e-05 0.00065808 0 0.00140937 0.00180656 0.00276996 3.6201e-05 0.000513597 0.00104446 -3.55202e-05 -0.000385037 -0.00142876 -0.00225827 0 0.00170715
internal_weight=6240 5725 453 5272 311 272 156 5185 819 453 4366 1421 301 226 366 258
internal_count=6240 5725 453 5272 311 272 156 5185 819 453 4366 1421 301 226 366 258
is_linear=0
shrinkage=0.0786055


Tree=29
num_leaves=17
num_cat=0
split_feature=0 20 9 27 113 9 18 27 9 55 22 27 27 121 23 20
split_gain=0.02296 0.0183914 0.0353269 0.0231641 0.0378048 0.0207972 0.0241652 0.0211157 0.0192684 0.0220389 0.0159088 0.0193543 0.0147819 0.0234559 0.0144109 0.0249633
threshold=-0.002059747576335091 0.21570902860348248 0.028418266321051308 6.5000000000000009 0.0068224261383337094 0.041101237438806677 0.10927568231506112 5.5000000000000009 0.014031893852484784 0.011171242822048245 16955743.118519187 4.5000000000000009 10.500000000000002 0.0034386664542496344 5.7969957777865178 0.074199455028737912
decision_type=2 2 2 2 2 2 2 2 2 2 2 2 2 2 2 2
left_child=1 2 3 4 -1 6 -4 -7 -6 -10 -3 -12 13 -8 -2 -16
right_child=14 10 5 -5 8 7 12 -9 9 -11 11 -13 -14 -15 15 -17
leaf_value=8.9583353880492062e-05 0 0 0 0 0 0.0018561607156630496 -0.0026960545161772722 -0.00049590933840556203 0.0024974877140906166 0 0 0.0015381512637013658 0 0 0 -0.00059395471454154317
leaf_weight=665 2437 80 104 969 72 36 89 24 115 31 121 174 39 33 408 843
leaf_count=665 2437 80 104 969 72 36 89 24 115 31 121 174 39 33 408 843
internal_value=0 0.000185379 5.75684e-05 0.00022239 0.000515547 -0.000641708 -0.000994798 0 0.00145683 0.00199564 0.000719355 0.000995381 -0.0015984 -0.00202938 -0.000121182 -0.000338316
internal_weight=6240 2552 2177 1852 883 325 265 60 218 146 375 295 161 122 3688 1251
internal_count=6240 2552 2177 1852 883 325 265 60 218 146 375 295 161 122 3688 1251
is_linear=0
shrinkage=0.0786055


Tree=30
num_leaves=17
num_cat=0
split_feature=18 9 9 14 9 23 22 39 102 23 17 8 13 24 106 105
split_gain=0.0204143 0.0349091 0.0278511 0.0342364 0.0472179 0.0300229 0.0314008 0.0284901 0.0343791 0.0320501 0.0395648 0.0465601 0.0284483 0.0278773 0.0362071 0.0231924
threshold=0.19796610068654638 0.083134269150504023 0.026533687445060346 7214716.8998104269 0.040615702191539253 1.2835992030048338 147605228.72959706 1.9044419405411703 5234661.4477298511 0.8134560635617224 0.028066478259267769 -0.012429029890449757 47040207.142857149 41.811783380360744 5915146.904274893 0.21400156134393553
decision_type=2 2 2 2 2 2 2 2 2 2 2 2 2 2 2 2
left_child=2 -2 5 -4 7 6 13 8 9 -5 -11 -12 -9 -1 -15 -7
right_child=1 -3 3 4 -6 15 -8 12 -10 10 11 -13 -14 14 -16 -17
leaf_value=0 0.0018818649533567232 0 0.0009749987641465101 0 0.00012287177516660222 -3.0905658539734689e-05 0 0 0.00016458648102195446 0 0 -0.0021572927551914496 -0.0023605383954882187 0.0027355229073926491 0 0.00068357545224692205
leaf_weight=44 96 24 79 115 367 4173 62 35 207 157 73 233 140 106 31 298
leaf_count=44 96 24 79 115 367 4173 62 35 207 157 73 233 140 106 31 298
internal_value=0 0.00101916 -1.48142e-05 -0.000331611 -0.000468205 6.31531e-05 0.000916662 -0.000775304 -0.00043423 -0.000783442 -0.0010926 -0.00161384 -0.00185877 0.00148288 0.0020397 0
internal_weight=6240 120 6120 1406 1327 4714 243 960 785 578 463 306 175 181 137 4471
internal_count=6240 120 6120 1406 1327 4714 243 960 785 578 463 306 175 181 137 4471
is_linear=0
shrinkage=0.0786055


Tree=31
num_leaves=17
num_cat=0
split_feature=3 90 115 25 20 16 90 45 91 31 24 3 34 17 24 117
split_gain=0.0201285 0.0163762 0.0154036 0.0168649 0.0157658 0.0335284 0.0147723 0.0150506 0.0190581 0.0294074 0.0145736 0.0187023 0.0144233 0.0136138 0.018421 0.0135294
threshold=-0.0020576277519791515 42586.328709051326 0.22548795745551978 2.5000000000000004 0.21112015851870988 -0.0077405621797709033 218945.43806738631 0.0036199085654088259 0.042578017808311816 1.3620033264160158 46.066959991057139 -0.013727219620843665 5164825.3869047631 0.024142232581532995 56.553875308747941 0.0056943719981840746
decision_type=2 2 2 2 2 2 2 2 2 2 2 2 2 2 2 2
left_child=1 2 3 4 13 -6 7 -3 9 -9 -5 12 -12 -1 -15 -2
right_child=15 6 -4 10 5 -7 -8 8 -10 -11 11 -13 -14 14 -16 -17
leaf_value=0.00038733924490987737 -0.00019363926407158121 0 -0.00041603265796908979 0.00015865906861315128 0 0.0023766010767083648 0 0 0 0.0018308343338161324 -0.0015216129093289 0 0 0 -0.0015684306351739837 0.0001515250345742617
leaf_weight=560 3026 269 344 294 60 76 126 86 54 198 125 166 21 122 51 662
leaf_count=560 3026 269 344 294 60 76 126 86 54 198 125 166 21 122 51 662
internal_value=0 0.000176266 4.52029e-06 0.000155452 0.000397635 0.0012796 0.000496107 0.000668981 0.00103854 0.00130306 -6.33045e-05 -0.000522054 -0.00117167 0.0001275 -0.000263215 -0.000110552
internal_weight=6240 2552 1819 1475 869 136 733 607 338 284 606 312 146 733 173 3688
internal_count=6240 2552 1819 1475 869 136 733 607 338 284 606 312 146 733 173 3688
is_linear=0
shrinkage=0.0786055


Tree=32
num_leaves=17
num_cat=0
split_feature=27 27 113 40 18 121 27 16 20 20 106 38 20 27 27 123
split_gain=0.0193584 0.0250329 0.0855846 0.0590409 0.0511862 0.0458152 0.0650248 0.0472995 0.0387843 0.0383513 0.0365271 0.0489387 0.0321803 0.0330982 0.0438269 0.100815
threshold=11.500000000000002 9.5000000000000018 0.0043404747510164387 0.015242260267473769 0.033020759344613272 0.0050404887790425181 1.5000000000000002 0.0066638030644591067 0.11828577620342891 0.22566560258003968 5757043.3201659461 5934047.6709183678 0.30532120886528336 2.5000000000000004 7.5000000000000009 0.015961360385723152
decision_type=2 2 2 2 2 2 2 2 2 2 2 2 2 2 2 2
left_child=1 3 4 5 -3 6 -1 12 -4 -10 -7 -12 13 -8 15 -15
right_child=-2 2 8 -5 -6 10 7 -9 9 -11 11 -13 -14 14 -16 -17
leaf_value=0.00067893725739400174 -0.00045287721324605338 0 0.00016790899538924987 0.0023276146060388922 0.0013971960907188836 -9.6178581726411155e-05 -0.00081080164735647527 -0.0011682080437179999 -0.0015988992903399526 0 0.0037799783001595819 0.00045122092149510923 -0.0020143935778677898 0.00066782120366900113 -0.00049067769183117093 -0.00049039835330211192
leaf_weight=432 515 100 234 64 500 178 369 384 198 28 43 423 63 1177 831 701
leaf_count=432 515 100 234 64 500 178 369 384 198 28 43 423 63 1177 831 701
internal_value=0 4.93743e-05 0.000397877 -1.3122e-05 0.00104875 -6.26881e-05 -0.000177714 -0.000304826 -0.000281828 -0.00109183 0.000522997 0.000926612 -0.00017442 -0.000111353 0 0.000194003
internal_weight=6240 5725 1060 4665 600 4601 3957 3525 460 226 644 466 3141 3078 2709 1878
internal_count=6240 5725 1060 4665 600 4601 3957 3525 460 226 644 466 3141 3078 2709 1878
is_linear=0
shrinkage=0.0786055


Tree=33
num_leaves=17
num_cat=0
split_feature=40 123 70 114 34 117 70 20 122 66 13 117 14 22 20 17
split_gain=0.0188716 0.0507689 0.0480168 0.045916 0.0418994 0.0435479 0.0445386 0.0376852 0.0651538 0.0603453 0.0435636 0.0329862 0.0324982 0.0340959 0.0379895 0.0324081
threshold=0.0048805559783669621 0.015736391082115459 7488828.813950303 395091.99886646535 7558189.1577380961 0.006561729640798564 4895979.1683460893 0.07669913605938404 84154.566958804746 3471030.0083333338 427988071.42857152 0.0056943719981840746 12795117.562538186 115307385.65747596 0.15898130074375444 0.033954495536209148
decision_type=2 2 2 2 2 2 2 2 2 2 2 2 2 2 2 2
left_child=12 2 3 -2 5 6 -5 -3 9 -9 -11 -10 -1 14 -14 -15
right_child=1 7 -4 4 -6 -7 -8 8 11 10 -12 -13 13 15 -16 -17
leaf_value=-0.00036004104359538421 0 0.00072104267215687137 0 0 0 0 0.0031030255147210394 0 -0.00030855040024330708 -0.0021681199401542991 0 0.00054940449347828089 0 0 0.00091157726616651559 -0.0014736879118518991
leaf_weight=1761 112 322 177 29 78 87 184 184 483 235 31 538 1358 109 403 149
leaf_count=1761 112 322 177 29 78 87 184 184 483 235 31 538 1358 109 403 149
internal_value=0 0.000175584 0.000764125 0.00118323 0.00160155 0.00202338 0.00265096 0 -0.000210789 -0.00101453 -0.00177252 6.72466e-05 -0.000103838 8.10469e-05 0.000238613 -0.00069213
internal_weight=6240 2460 667 490 378 300 213 1793 1471 450 266 1021 3780 2019 1761 258
internal_count=6240 2460 667 490 378 300 213 1793 1471 450 266 1021 3780 2019 1761 258
is_linear=0
shrinkage=0.0786055


Tree=34
num_leaves=17
num_cat=0
split_feature=118 110 71 117 27 27 43 89 122 73 55 27 27 27 117 91
split_gain=0.0173198 0.0457852 0.0298351 0.0248769 0.0321692 0.0399999 0.0495896 0.0745186 0.0272778 0.0315498 0.0270215 0.0238521 0.0347803 0.0678705 0.0555861 0.0477506
threshold=206638.04353656 4955995.1127463933 1.525914223988851 0.0061514396610699825 10.500000000000002 7.5000000000000009 2.0086140102810335 0.0022551647794160266 298098.4097256136 0.20969946232685024 0.0059213547642242995 11.500000000000002 9.5000000000000018 8.5000000000000018 0.0018080676781820361 0.0080157990085672724
decision_type=2 2 2 2 2 2 2 2 2 2 2 2 2 2 2 2
left_child=1 11 -3 8 5 10 -7 -8 -2 -10 -5 12 13 -1 -14 -15
right_child=3 2 -4 4 -6 6 7 -9 9 -11 -12 -13 14 15 -16 -17
leaf_value=3.4578913418756532e-05 0.00015066573744887244 0 -0.0024735861649733139 0.0010184217977048907 -0.00035629955028174435 0 0 0.0053803215091065108 0 -0.0024367584924468622 -6.2924684371980374e-05 -0.00061770939138809276 0.00095433506657462803 -0.0016834039436913841 -0.00032603489146856374 0
leaf_weight=2935 803 82 80 177 77 72 58 49 97 58 248 376 579 255 214 80
leaf_count=2935 803 82 80 177 77 72 58 49 97 58 248 376 579 255 214 80
internal_value=0 -7.11535e-05 -0.00137383 0.000226 0.000590404 0.000840119 0.00191331 0.00299674 0 -0.000984304 0.000204349 -6.01741e-06 3.14338e-05 -6.09537e-05 0.000510579 -0.00113007
internal_weight=6240 4601 162 1639 681 604 179 107 958 155 425 4439 4063 3270 793 335
internal_count=6240 4601 162 1639 681 604 179 107 958 155 425 4439 4063 3270 793 335
is_linear=0
shrinkage=0.0786055


Tree=35
num_leaves=17
num_cat=0
split_feature=0 10 107 21 9 13 22 41 79 116 104 36 102 18 86 21
split_gain=0.0202221 0.0357346 0.0261464 0.0309792 0.0222605 0.0329466 0.0337049 0.0285449 0.0701559 0.0434214 0.0409138 0.0538388 0.039845 0.0227521 0.0241003 0.0198636
threshold=0.022246794060585721 0.11122289890870209 2.1257731657114016 502459933.33333343 0.027537341770494671 93763221.428571448 147605228.72959706 0.21086869347376272 1.3833494229880594 0.00081281191134668581 0.0093183799746311084 0.0080176533812172986 8331797.6237244913 0.086719149419918248 105745.83838560838 64081016.666666679
decision_type=2 2 2 2 2 2 2 2 2 2 2 2 2 2 2 2
left_child=1 4 3 -3 5 7 -7 10 9 12 11 -1 -9 -12 -15 -6
right_child=-2 2 -4 -5 15 6 -8 8 -10 -11 13 -13 -14 14 -16 -17
leaf_value=-6.1093508970634945e-05 -0.00037181120005540122 0.001986540595412757 0 0 0 0.00076092583095369233 -0.00037255117560195257 0.0050656963123737976 0 0 0 0.0019184308719064835 0 -0.0028865864932121599 0 -0.00067509606503011012
leaf_weight=3197 768 150 39 64 250 736 106 43 77 23 77 87 21 67 28 507
leaf_count=3197 768 150 39 64 250 736 106 43 77 23 77 87 21 67 28 507
internal_value=0 5.85477e-05 0.000972788 0.0013686 0 8.08159e-05 0.000525671 -1.14989e-06 0.000984793 0.00260787 -7.05202e-05 0 0.00366362 -0.00125234 -0.0020773 -0.000378378
internal_weight=6240 5472 253 214 5219 4462 842 3620 164 87 3456 3284 64 172 95 757
internal_count=6240 5472 253 214 5219 4462 842 3620 164 87 3456 3284 64 172 95 757
is_linear=0
shrinkage=0.0786055


Tree=36
num_leaves=17
num_cat=0
split_feature=0 24 25 23 0 22 12 52 19 23 23 8 34 12 8 123
split_gain=0.0178753 0.0156261 0.0206113 0.0198152 0.017778 0.0168753 0.0270947 0.0163624 0.0224764 0.0136096 0.0129638 0.0225718 0.0286473 0.0199551 0.0198546 0.0262518
threshold=-0.0013785499111591546 37.027915523573675 2.5000000000000004 3.7772068970610451 -0.013822309118358243 118664291.95821939 0.073821910151740153 1.370109944323418e-05 -0.019782997060350745 3.5648461164130469 5.7969957777865178 -0.0063426234082265076 5934861.0982142864 0.18430195552610243 0.0018447867557647793 0.041908461041904911
decision_type=2 2 2 2 2 2 2 2 2 2 2 2 2 2 2 2
left_child=1 9 3 5 7 6 -3 8 -4 -1 11 12 13 -2 -12 -16
right_child=10 2 4 -5 -6 -7 -8 -9 -10 -11 14 -13 -14 -15 15 -17
leaf_value=0 -0.0019396893941773384 0 0 0 0 0 0.0018434232900514074 0 -0.0016362227327393604 0.00072165683446635375 0 6.9340414604398594e-05 0 0 -0.001019994401666073 0
leaf_weight=185 114 171 74 812 477 88 138 129 150 472 586 2145 50 37 394 218
leaf_count=185 114 171 74 812 477 88 138 129 150 472 586 2145 50 37 394 218
internal_value=0 0.000155708 7.75951e-06 0.000249599 -0.000250633 0.000705665 0.00098843 -0.000677287 -0.00108341 0.000496197 -0.000112781 0 -0.000801305 -0.00142324 -0.000323232 -0.000636319
internal_weight=6240 2696 2039 1209 830 397 309 353 224 657 3544 2346 201 151 1198 612
internal_count=6240 2696 2039 1209 830 397 309 353 224 657 3544 2346 201 151 1198 612
is_linear=0
shrinkage=0.0786055


Tree=37
num_leaves=17
num_cat=0
split_feature=0 10 107 7 12 9 12 104 14 13 13 2 93 16 61 27
split_gain=0.0158688 0.0289136 0.0231936 0.022275 0.0199952 0.0180872 0.030107 0.0257045 0.0288467 0.0177227 0.0181907 0.0171339 0.0167606 0.0166047 0.0160434 0.0184991
threshold=0.022246794060585721 0.11122289890870209 2.1257731657114016 0.84897792530149208 0.14210306377854676 0.027537341770494671 0.092433951286077357 0.0092708532825630952 87088002.15541251 93763221.428571448 356297478.5714286 0.07951118740044795 0.0047189556870094922 -0.0064874877016267256 0.0061347817487402206 10.500000000000002
decision_type=2 2 2 2 2 2 2 2 2 2 2 2 2 2 2 2
left_child=1 5 3 -3 -2 6 9 8 12 -1 -11 -5 -8 -6 15 -7
right_child=4 2 -4 11 13 14 7 -9 -10 10 -12 -13 -14 -15 -16 -17
leaf_value=-8.7241295951180785e-05 0 0 0 0.0018519183864736878 0 -0.00088566192882715933 0 0 0.0029117828631046979 0.00066446943318657309 -2.7346487028972414e-05 0 0.0014358305121068456 -0.0013903127465644386 0 0
leaf_weight=3206 570 24 39 169 38 385 286 283 57 447 103 21 80 160 270 102
leaf_count=3206 570 24 39 169 38 385 286 283 57 447 103 21 80 160 270 102
internal_value=0 5.17212e-05 0.000873817 0.00125373 -0.000329528 0 7.19243e-05 0.000544176 0.00093248 0 0.00039331 0.00157926 0.000410394 -0.001022 -0.000342224 -0.000620903
internal_weight=6240 5472 253 214 768 5219 4462 706 423 3756 550 190 366 198 757 487
internal_count=6240 5472 253 214 768 5219 4462 706 423 3756 550 190 366 198 757 487
is_linear=0
shrinkage=0.0786055


Tree=38
num_leaves=17
num_cat=0
split_feature=27 53 27 27 20 18 20 20 16 86 16 21 119 20 36 86
split_gain=0.014909 0.0317157 0.0311158 0.0473719 0.0764066 0.0370992 0.124564 0.0501888 0.0391498 0.0625588 0.0369856 0.0360927 0.0316273 0.0309551 0.0768515 0.0304675
threshold=1.5000000000000002 0.00022496768992406708 4.5000000000000009 5.5000000000000009 0.11828577620342891 0.13076850726643574 0.21570902860348248 0.18747546146021071 -0.0079115590267390314 37184.297400306416 0.0041631495867638863 465140933.33333337 0.10848044043122049 0.10497204196315126 0.0078965563192780492 103567.31737831606
decision_type=2 2 2 2 2 2 2 2 2 2 2 2 2 2 2 2
left_child=1 -1 10 4 -4 7 -7 13 -9 -10 -2 -6 -8 14 -5 -16
right_child=2 -3 3 5 11 6 12 8 9 -11 -12 -13 -14 -15 15 -17
leaf_value=0.0008210727444302497 -6.9153554306300425e-05 -0.00045491022890697719 0 1.3956077791022918e-05 0.0020669035285998932 -0.0025175857135837933 -6.0111249487990814e-05 0 0.002709941161992318 0 -0.001101365651326864 0 0.0020533438484565173 -0.00036711950317305043 0 0.0037228212578064935
leaf_weight=392 1213 88 263 1848 235 156 243 39 129 74 332 32 46 1078 21 51
leaf_count=392 1213 88 263 1848 235 156 243 39 129 74 332 32 46 1078 21 51
internal_value=0 0.000424799 -3.08314e-05 6.45561e-05 0.000764005 -1.49259e-05 -0.00070308 5.55692e-05 0.00114953 0.00166309 -0.000341471 0.00171043 7.67768e-06 -6.79901e-06 0.00015494 0.00268623
internal_weight=6240 480 5760 4215 530 3685 445 3240 242 203 1545 267 289 2998 1920 72
internal_count=6240 480 5760 4215 530 3685 445 3240 242 203 1545 267 289 2998 1920 72
is_linear=0
shrinkage=0.0786055


Tree=39
num_leaves=17
num_cat=0
split_feature=0 24 23 9 121 8 20 72 20 23 55 14 8 113 115 61
split_gain=0.0148669 0.0127018 0.0183399 0.0181511 0.0155012 0.0118471 0.0116349 0.0151779 0.011633 0.017524 0.0217474 0.0343377 0.0168787 0.0104963 0.0183567 0.0251108
threshold=-0.002059747576335091 52.986792895759713 4.9655365191214829 0.0099688233054908999 0.0044114391867782618 0.0013196900842906702 0.10015973606793621 0.0076824150603808971 0.1662390998871707 1.4036033207600604 0.013812946358419483 13961626.351785043 0.0016330222048838957 0.014527458555909782 0.31136359053301949 0.0076364685676666858
decision_type=2 2 2 2 2 2 2 2 2 2 2 2 2 2 2 2
left_child=1 8 5 -4 -5 -3 7 -2 -1 -10 11 -11 -13 -8 15 -15
right_child=6 2 3 4 -6 -7 13 -9 9 10 -12 12 -14 14 -16 -17
leaf_value=7.9301093335675294e-05 0 0 0 -0.0010623149605475052 0 0.00050783372124842412 -0.00033724636530011988 0.0011027347177371542 0 0 0 0.0024620189360530088 0 0.0018789887034280917 -0.00020961630977673289 0
leaf_weight=1064 1736 247 121 260 76 391 1519 77 72 124 48 125 24 73 235 48
leaf_count=1064 1736 247 121 260 76 391 1519 77 72 124 48 125 24 73 235 48
internal_value=0 0.000147858 0 -0.000432838 -0.000767092 0.000208243 -9.88866e-05 3.99213e-06 0.000303564 0.000712287 0.000978909 0.00127225 0.00209449 -0.000239908 0 0.00092248
internal_weight=6240 2552 1095 457 336 638 3688 1813 1457 393 321 273 149 1875 356 121
internal_count=6240 2552 1095 457 336 638 3688 1813 1457 393 321 273 149 1875 356 121
is_linear=0
shrinkage=0.0786055


Tree=40
num_leaves=17
num_cat=0
split_feature=27 27 112 10 40 20 20 121 104 96 27 103 21 116 27 117
split_gain=0.0130524 0.0179894 0.0614905 0.0467568 0.0401941 0.0288216 0.0291028 0.028341 0.0482224 0.0817267 0.046648 0.0664505 0.0431312 0.041707 0.0394605 0.0390637
threshold=11.500000000000002 9.5000000000000018 0.00092458518535395724 0.023964962484112253 0.015242260267473769 0.11828577620342891 0.22381371522555416 0.0050404887790425181 0.010073047718090715 0.0070458724046027696 8.5000000000000018 1.2668850567876078 517566966.66666669 0.00015215366253452714 7.5000000000000009 0.01474437309912544
decision_type=2 2 2 2 2 2 2 2 2 2 2 2 2 2 2 2
left_child=1 4 3 -3 7 -4 -7 8 9 14 11 -10 -11 -13 -1 -15
right_child=-2 2 5 -5 -6 6 -8 -9 10 12 -12 13 -14 15 -16 -17
leaf_value=0 -0.00037656494131651185 0 0.00012730992218067566 0.0013020804473313395 0.0019091045668577027 -0.0013874733282931283 0 0.00039397658838703602 0 0.0020957477397120805 0.00035104167404275126 0 0 -0.0024204314253546432 -0.00063059746487876937 0
leaf_weight=2505 515 153 232 450 64 196 29 644 99 162 63 22 24 269 767 46
leaf_count=2505 515 153 232 450 64 196 29 644 99 162 63 22 24 269 767 46
internal_value=0 3.64351e-05 0.000333335 0.000886761 -1.43342e-05 -0.000226506 -0.000937247 -5.80828e-05 -0.000151357 -2.36242e-05 -0.000880164 -0.00123677 0.00154732 -0.0017879 -0.000136803 -0.00205851
internal_weight=6240 5725 1060 603 4665 457 225 4601 3957 3458 499 436 186 337 3272 315
internal_count=6240 5725 1060 603 4665 457 225 4601 3957 3458 499 436 186 337 3272 315
is_linear=0
shrinkage=0.0786055


Tree=41
num_leaves=17
num_cat=0
split_feature=29 55 102 120 78 96 115 15 27 27 94 10 18 17 15 15
split_gain=0.0138642 0.031978 0.0270617 0.0227186 0.0243958 0.0304283 0.0268761 0.0229645 0.0205862 0.0392462 0.0315721 0.0267293 0.0241444 0.0481415 0.031652 0.0329587
threshold=0.0051435315688088687 0.012021464114021123 4901164.1733611627 9.351478645269462e-05 3283021.0798883154 0.0072520897360420266 0.23049743799275257 3.9091917339471052 1.5000000000000002 2.5000000000000004 6491616.6142857159 0.088720535147779708 0.12739059390650045 0.044635030592937462 0.76339675231629589 6.2234741382508192
decision_type=2 2 2 2 2 2 2 2 2 2 2 2 2 2 2 2
left_child=8 2 -2 -4 5 -5 -7 -6 11 10 -10 -1 -11 14 -14 -16
right_child=1 -3 3 4 7 6 -8 -9 9 12 -12 -13 13 -15 15 -17
leaf_value=9.3007761500853361e-06 -0.00010910889178261191 -0.00028112358283530003 0 0 0 0.0037167726425168207 0 0.00082660560488120275 -0.0012144365390072637 2.733792576925497e-05 0 0.0024250037376897754 0 0.00032730852466169631 -0.0018287977593420468 0
leaf_weight=365 120 313 130 23 107 68 25 376 334 3757 61 42 63 143 248 65
leaf_count=365 120 313 130 23 107 68 25 376 334 3757 61 42 63 143 248 65
internal_value=0 0.000250112 0.000537735 0.000751071 0.000959582 0.00224871 0.0028851 0.000488126 -5.05283e-05 -0.000110898 -0.000868038 0.000450735 -2.27082e-05 -0.00053498 -0.00107007 -0.0014142
internal_weight=6240 1162 849 729 599 116 93 483 5078 4671 395 407 4276 519 376 313
internal_count=6240 1162 849 729 599 116 93 483 5078 4671 395 407 4276 519 376 313
is_linear=0
shrinkage=0.0786055


Tree=42
num_leaves=17
num_cat=0
split_feature=0 12 9 27 109 18 35 32 8 22 15 21 23 38 16 12
split_gain=0.0145737 0.025015 0.0235304 0.0348148 0.0252529 0.0288183 0.0221225 0.0207698 0.0200834 0.0277518 0.0624877 0.0410796 0.0240272 0.0249742 0.0232246 0.0158796
threshold=0.022246794060585721 0.1141494401762191 0.028418266321051308 9.5000000000000018 0.0080388282401779709 0.098927192698280195 2.0770271392095658 0.0091764587047532386 -0.0040497596652708159 115307385.65747596 4.4631563399433842 52981520.000000007 7.0552755143478647 6454212.6028911574 -0.0067446977092869903 0.14210306377854676
decision_type=2 2 2 2 2 2 2 2 2 2 2 2 2 2 2 2
left_child=1 2 7 4 5 -4 8 -1 12 10 11 -10 13 14 -3 -2
right_child=15 6 3 -5 -6 -7 -8 -9 9 -11 -12 -13 -14 -15 -16 -17
leaf_value=-7.4665355764686276e-06 0 0 0 0 0 -0.0028402245734841687 -2.5361469699629458e-05 0.00083575404308846094 0 0 0 0.0033261106738584397 0.001579895508484902 0.0010404666024156435 -0.0012757993316699359 -0.00093512530192602908
leaf_weight=3988 570 148 38 77 33 86 222 184 21 125 175 112 59 62 142 198
leaf_count=3988 570 148 38 77 33 86 222 184 21 125 175 112 59 62 142 198
internal_value=0 5.21734e-05 -1.37506e-05 -0.000788868 -0.0015153 -0.00204043 0.000397698 1.10749e-05 0.000601264 0.000995511 0.00139626 0.00272245 0 -4.8532e-05 -0.000550298 -0.000312788
internal_weight=6240 5472 4406 234 157 124 1066 4172 844 433 308 133 411 352 290 768
internal_count=6240 5472 4406 234 157 124 1066 4172 844 433 308 133 411 352 290 768
is_linear=0
shrinkage=0.0786055


Tree=43
num_leaves=17
num_cat=0
split_feature=3 24 23 20 8 123 8 62 9 80 17 9 58 117 24 23
split_gain=0.0137638 0.0121058 0.00985161 0.0170609 0.0210365 0.0240205 0.0138115 0.0217039 0.0119949 0.0128486 0.0135281 0.0147339 0.0112836 0.0101351 0.0144588 0.00977278
threshold=-0.0013776001474319897 52.986792895759713 5.7969957777865178 0.074199455028737912 -0.00074605256226375637 0.042246426969944025 -0.0063426234082265076 5823221.1285714293 0.010151416242657309 0.0025075131905654383 0.013452499755921055 0.040615702191539253 32346.266211440518 0.0028295967753524747 77.344490005229233 4.2428852659207861
decision_type=2 2 2 2 2 2 2 2 2 2 2 2 2 2 2 2
left_child=1 -1 6 -4 -5 8 7 -2 -6 10 -10 -12 -8 -14 -15 -3
right_child=2 15 3 4 5 -7 12 -9 9 -11 11 -13 13 14 -16 -17
leaf_value=0.00029077757875131655 -0.0011739317425787247 0.00018957701736240537 0 0 0 0 0 0 0 0 -0.0019162713417997721 0 0 0.0013411502171460322 0 -0.00025205891227534299
leaf_weight=1513 154 536 387 298 64 161 1885 47 23 23 219 23 101 127 32 647
leaf_count=1513 154 536 387 298 64 161 1885 47 23 23 219 23 101 127 32 647
internal_value=0 0.00014039 -9.48796e-05 -0.000278268 -0.000494305 -0.000799709 0 -0.000624016 -0.00116336 -0.00138247 -0.00154156 -0.00171678 5.71786e-05 0.000543104 0.000935763 0
internal_weight=6240 2696 3544 1198 811 513 2346 201 352 288 265 242 2145 260 159 1183
internal_count=6240 2696 3544 1198 811 513 2346 201 352 288 265 242 2145 260 159 1183
is_linear=0
shrinkage=0.0786055


Tree=44
num_leaves=17
num_cat=0
split_feature=3 4 19 22 23 24 104 113 113 11 39 97 116 17 21 123
split_gain=0.0115044 0.0233455 0.0319116 0.0183521 0.0315926 0.018162 0.0246498 0.0169977 0.0162827 0.0283696 0.0216542 0.0213024 0.0165491 0.0200734 0.0253003 0.0151089
threshold=0.022496099363575332 0.036698212347605029 -0.024848313401654828 145839264.7177203 1.2835992030048338 44.396354330953493 0.0098501805607567328 0.019375904180511591 0.005436794678253829 0.028923910869952166 2.5178452446347195 0.052654724417679648 0.00010428128860891496 0.026431648763860841 56528840.000000007 0.037661946149921209
decision_type=2 2 2 2 2 2 2 2 2 2 2 2 2 2 2 2
left_child=1 3 -3 4 5 -1 -7 -5 12 10 11 -10 13 -6 -15 -14
right_child=-2 2 -4 7 8 6 -8 -9 9 -11 -12 -13 15 14 -16 -17
leaf_value=0 -0.00027675649491820708 0.00086968896053310637 0 -0.0014029295961301693 5.1335549582448434e-05 0.0022042578769404164 0 0 0.00085240290373541066 -0.00021135439597783662 0 0 -0.00069654869214860412 0 -0.0015401518924316538 0
leaf_weight=56 768 467 440 111 1841 94 22 21 633 492 203 86 530 58 116 302
leaf_count=56 768 467 440 111 1841 94 22 21 633 492 203 86 530 58 116 302
internal_value=0 4.73109e-05 0.000414894 -8.66584e-06 1.15406e-06 0.00105857 0.00162082 -0.000927715 -2.32791e-05 0.000170916 0.000459399 0.000675775 -0.000147099 0 -0.000827261 -0.00044375
internal_weight=6240 5472 907 4565 4433 172 116 132 4261 1414 922 719 2847 2015 174 832
internal_count=6240 5472 907 4565 4433 172 116 132 4261 1414 922 719 2847 2015 174 832
is_linear=0
shrinkage=0.0786055


Tree=45
num_leaves=17
num_cat=0
split_feature=15 22 15 14 18 10 18 14 16 21 21 22 7 123 21 72
split_gain=0.0104561 0.0478738 0.0409227 0.029358 0.0361584 0.0257348 0.0237541 0.0149163 0.014547 0.0322184 0.0334399 0.0749996 0.0228999 0.0216728 0.0189934 0.063971
threshold=1.191222777438351 86205565.009989306 1.6439451468041211 87088002.15541251 0.13614777893572116 0.067180339812667453 0.078244288486132643 68789278.658979222 -0.0039722742271936602 83470526.666666687 62059816.666666679 15338073.331239546 10.105735638211693 0.015736391082115459 49788333.333333343 0.011457398809378081
decision_type=2 2 2 2 2 2 2 2 2 2 2 2 2 2 2 2
left_child=1 6 7 4 -3 -5 -1 -2 9 10 13 -12 -11 -4 15 -10
right_child=2 3 8 5 -6 -7 -8 -9 14 12 11 -13 -14 -15 -16 -17
leaf_value=0 0 -0.0021435121789664699 0.00091642836843711464 0.0017994654371714725 0 0 0.0020914064380157193 -0.0016302667543532769 0 0.0012096519238253506 -0.0032029244001506884 0 0 0 -0.00017392778794846154 0.0020640051077000475
leaf_weight=51 69 83 198 56 38 137 115 131 1635 289 62 74 49 207 2945 101
leaf_count=51 69 83 198 56 38 137 115 131 1635 289 62 74 49 207 2945 101
internal_value=0 0.000356627 -2.47909e-05 0 -0.00114421 0.000343516 0.00146559 -0.00113182 1.04535e-06 0.000306387 0 -0.0011309 0.000912566 0.00028322 -3.96549e-05 0.000143246
internal_weight=6240 480 5760 314 121 193 166 200 5560 879 541 136 338 405 4681 1736
internal_count=6240 480 5760 314 121 193 166 200 5560 879 541 136 338 405 4681 1736
is_linear=0
shrinkage=0.0786055


Tree=46
num_leaves=17
num_cat=0
split_feature=27 70 23 21 27 113 10 40 19 41 117 93 37 113 118 102
split_gain=0.0112312 0.0158175 0.0190219 0.0198994 0.0140744 0.0547271 0.0409073 0.0279316 0.0255864 0.0250429 0.043382 0.041335 0.0564718 0.0660786 0.0346761 0.0319063
threshold=11.500000000000002 5883649.4438775517 7.8083338419596364 83470526.666666687 9.5000000000000018 0.0043404747510164387 0.023492228491283424 0.015242260267473769 -0.10492644546222156 0.23795511464266966 0.015488034203512538 0.0048792371671229455 0.12384197723298558 0.013788213745047137 233338.67732534284 7877516.2866315236
decision_type=2 2 2 2 2 2 2 2 2 2 2 2 2 2 2 2
left_child=4 2 3 -2 7 6 -6 9 -8 11 -11 -1 15 -14 -15 -13
right_child=1 -3 -4 -5 5 -7 8 -9 -10 10 -12 12 13 14 -16 -17
leaf_value=-0.00010543944787862609 -0.0013328742993714278 1.9633695496680779e-05 0 0 0 -0.00022128054400214411 0 0.0015949893946191353 0.0013830158114520273 -0.0014412771061887927 0 0.00200130333446065 -0.00088013816824342227 0 0.0016664230845191324 0
leaf_weight=3589 225 97 71 122 148 460 23 64 429 208 94 190 233 92 159 36
leaf_count=3589 225 97 71 122 148 460 23 64 429 208 94 190 233 92 159 36
internal_value=0 -0.000346358 -0.000617604 -0.000893318 3.64265e-05 0.000298354 0.000826527 -6.39549e-06 0.00121069 -4.56545e-05 -0.000737472 0 0.000550871 0 0.000952145 0.00157983
internal_weight=6240 515 418 347 5725 1060 600 4665 452 4601 302 4299 710 484 251 226
internal_count=6240 515 418 347 5725 1060 600 4665 452 4601 302 4299 710 484 251 226
is_linear=0
shrinkage=0.0786055


Tree=47
num_leaves=17
num_cat=0
split_feature=3 29 91 119 89 85 121 38 24 116 27 27 27 15 18 27
split_gain=0.0109379 0.0155217 0.0300845 0.0230562 0.0321956 0.0208722 0.0288165 0.0285844 0.0195691 0.0139768 0.0116331 0.0229826 0.0307196 0.0365892 0.0325609 0.0315874
threshold=0.030572794266529816 0.0050945647573271543 0.016284544960439112 0.047121612749994136 0.004857242215171558 0.0063645462018682578 0.0017515600095250161 4893514.0102040824 53.344326180949388 0.0020043305056011754 1.5000000000000002 4.5000000000000009 7.5000000000000009 4.4396010554100709 0.031569157142513737 9.5000000000000018
decision_type=2 2 2 2 2 2 2 2 2 2 2 2 2 2 2 2
left_child=1 10 5 4 -4 6 -3 -8 9 -5 -1 -12 13 14 -13 -14
right_child=-2 2 3 8 -6 -7 7 -9 -10 -11 11 12 15 -15 -16 -17
leaf_value=0.0003862877701243706 -0.00035607000573582869 0 -0.0021139049502666807 0.0010551108642740906 0 0 0 0.0016144409679129793 -0.00029872597488004042 0 -0.00037245931277341514 0 -0.0005158763429148627 0 0.0010637795969288761 6.6686999492267655e-05
leaf_weight=381 480 132 75 182 28 59 31 296 113 21 1120 139 852 575 514 1242
leaf_count=381 480 132 75 182 28 59 31 296 113 21 1120 139 852 575 514 1242
internal_value=0 3.41249e-05 0.000330486 0 -0.00115191 0.000745854 0.000953239 0.00134891 0.000133062 0.000757008 -7.30499e-06 -5.8616e-05 2.37532e-05 0.000354745 0.000763393 -0.000133157
internal_weight=6240 5760 937 419 103 518 459 327 316 203 4823 4442 3322 1228 653 2094
internal_count=6240 5760 937 419 103 518 459 327 316 203 4823 4442 3322 1228 653 2094
is_linear=0
shrinkage=0.0786055


Tree=48
num_leaves=17
num_cat=0
split_feature=53 99 27 29 91 121 85 70 27 27 98 10 17 12 27 10
split_gain=0.00980714 0.0263553 0.019552 0.0183873 0.0194259 0.0212213 0.0295668 0.0348864 0.019177 0.0309041 0.0265821 0.0230617 0.0191798 0.0302769 0.0426665 0.0822571
threshold=0.0010228886734490073 1.8335983887379308 7.5000000000000009 0.0051435315688088687 0.016284544960439112 0.0017515600095250161 0.0063645462018682578 5008472.434842688 1.5000000000000002 2.5000000000000004 6810306.9063852821 0.082713744556797184 0.02696344272559523 0.1141494401762191 10.500000000000002 0.07095786117690718
decision_type=2 2 2 2 2 2 2 2 2 2 2 2 2 2 2 2
left_child=3 -2 -3 8 5 -5 7 -7 11 10 -10 -1 -11 14 15 -14
right_child=1 2 -4 4 -6 6 -8 -9 9 12 -12 -13 13 -15 -16 -17
leaf_value=0 0 -0.0020882805774078907 0 0 0 0 0 0.001551997808580012 -0.0010556012607023961 6.2847609996989176e-05 0 0.0020507729797341664 0 0 0 -0.0032278885425971533
leaf_weight=343 188 78 55 141 422 46 47 317 347 3340 48 55 108 522 81 102
leaf_count=343 188 78 55 141 422 46 47 317 347 3340 48 55 108 522 81 102
internal_value=0 -0.000421779 -0.00128536 2.41968e-05 0.000343031 0.000652341 0.000944215 0.00122882 -2.27811e-05 -8.33941e-05 -0.000750517 0.000473932 -1.15796e-06 -0.000359893 -0.00100215 -0.00162663
internal_weight=6240 321 133 5919 973 551 410 363 4946 4548 395 398 4153 813 291 210
internal_count=6240 321 133 5919 973 551 410 363 4946 4548 395 398 4153 813 291 210
is_linear=0
shrinkage=0.0786055


Tree=49
num_leaves=17
num_cat=0
split_feature=3 20 117 111 82 99 14 90 27 23 27 91 27 17 27 8
split_gain=0.00986242 0.00984866 0.011095 0.0105825 0.00956231 0.0153029 0.0227983 0.0136985 0.0109076 0.0125955 0.016284 0.0104596 0.0104074 0.0189376 0.0172626 0.0172494
threshold=-0.0013776001474319897 0.10015973606793621 0.0051506023477284639 1.0882442709760094 1282310.7132373792 2.4694178899129233 13961626.351785043 228049.07169370606 7.5000000000000009 5.1727639958410778 9.5000000000000018 0.0069006477158156847 4.5000000000000009 0.035602523279950053 3.5000000000000004 -0.0047572175329583079
decision_type=2 2 2 2 2 2 2 2 2 2 2 2 2 2 2 2
left_child=4 2 -2 -4 5 8 -7 -6 12 10 11 -10 14 -14 15 -1
right_child=1 -3 3 -5 7 6 -8 -9 9 -11 -12 -13 13 -15 -16 -17
leaf_value=0.00089752086031887166 -1.8475095538822251e-05 -0.00021729231545618611 0 0.0009371586205489718 0.00092866568578977584 0 -0.0017640400220843469 0 -0.00099317562336735925 0.00025535126479592099 0 0 0.00079541835319126269 0 -0.00054291125529099514 0
leaf_weight=195 1500 1819 73 152 206 154 66 103 224 340 302 44 442 60 190 370
leaf_count=195 1500 1819 73 152 206 154 66 103 224 340 302 44 442 60 190 370
internal_value=0 -8.43796e-05 1.06174e-05 0.000550525 0.000115077 2.62477e-05 -0.000543236 0.000548902 0.000120049 -1.50261e-05 -0.000312988 -0.000763885 0.000279805 0.000569269 0 0.000299273
internal_weight=6240 3544 1725 225 2696 2387 220 309 2167 910 570 268 1257 502 755 565
internal_count=6240 3544 1725 225 2696 2387 220 309 2167 910 570 268 1257 502 755 565
is_linear=0
shrinkage=0.0786055


Tree=50
num_leaves=17
num_cat=0
split_feature=27 15 17 20 53 99 3 16 10 4 91 21 122 32 23 11
split_gain=0.00890388 0.0142673 0.0222548 0.0380508 0.0139041 0.0228059 0.0138563 0.0107267 0.016117 0.00843474 0.00847859 0.00943336 0.00923907 0.00980749 0.0129561 0.0243744
threshold=11.500000000000002 4.8055623086684145 0.017697530762391236 0.20375732516291334 0.0010487113508303527 1.8335983887379308 -0.0024533039586175916 -0.0077405621797709033 0.047972777168429973 0.017557011438860369 0.030873577239980573 540058100.00000012 1196374.955062943 0.0064941571666360829 3.9262509122908891 -0.066518148029217281
decision_type=2 2 2 2 2 2 2 2 2 2 2 2 2 2 2 2
left_child=4 2 -2 -4 6 -6 9 -7 -9 -1 11 12 13 14 15 -11
right_child=1 -3 3 -5 5 7 -8 8 -10 10 -12 -13 -14 -15 -16 -17
leaf_value=0 0 0 -0.002194114475839361 0 0 0 -1.1617210558127475e-05 0 -0.0025318435670514026 0 0 0 0 0.00098721027208671154 0 0.00096912530624078993
leaf_weight=649 106 275 106 28 132 24 3345 23 58 67 139 91 23 344 526 304
leaf_count=649 106 275 106 28 132 24 3345 23 58 67 139 91 23 344 526 304
internal_value=0 -0.000312245 -0.000759102 -0.0014341 2.89258e-05 -0.000527343 6.71589e-05 -0.00140264 -0.00183468 0.000226469 0.000329312 0.000397779 0.000464463 0.000515479 0.000247591 0.000603218
internal_weight=6240 515 240 134 5725 237 5488 105 81 2143 1494 1355 1264 1241 897 371
internal_count=6240 515 240 134 5725 237 5488 105 81 2143 1494 1355 1264 1241 897 371
is_linear=0
shrinkage=0.0786055


Tree=51
num_leaves=17
num_cat=0
split_feature=24 23 22 17 11 23 106 20 41 100 36 75 119 75 14 41
split_gain=0.00898299 0.0197352 0.0324176 0.0438374 0.0444908 0.035163 0.0516419 0.0280997 0.0453019 0.0747072 0.0552341 0.0337097 0.0476716 0.0259123 0.0258363 0.0426116
threshold=35.391090576026322 3.7772068970610451 118664291.95821939 0.015725730322825742 -0.025248266517092829 0.61191026984739272 5915146.904274893 0.074199455028737912 0.21218319163144508 0.012408376212490215 0.016545230376786641 1.9604057257010226 0.073627764095392109 3.4338122867402583 28409288.773625288 0.11501533385499048
decision_type=2 2 2 2 2 2 2 2 2 2 2 2 2 2 2 2
left_child=-1 2 3 -2 -5 -6 -7 -3 13 11 -11 -10 -13 14 15 -9
right_child=1 7 -4 4 5 6 -8 8 9 10 -12 12 -14 -15 -16 -17
leaf_value=0.00022122258416191551 0 9.6805859381462008e-05 -0.00042189551652420268 0 0 0.001910206948949333 0 -0.00038529840748120921 0.00015061575447906312 -0.0013382009078570297 0.00063990689934996579 0.0051664195283131148 0 0.00059159578587147585 0 -0.0015312968831375053
leaf_weight=945 672 1266 347 143 46 346 128 1083 154 195 99 35 35 54 305 387
leaf_count=945 672 1266 347 143 46 346 128 1083 154 195 99 35 35 54 305 387
internal_value=0 -4.17945e-05 0.000158797 0.000368121 0.000825402 0.00118199 0.00141098 -0.000156746 -0.000326708 0.000223677 -0.000407226 0.00139908 0.00302892 -0.000525187 -0.000603101 -0.00074012
internal_weight=6240 5295 1682 1335 663 520 474 3613 2347 518 294 224 70 1829 1775 1470
internal_count=6240 5295 1682 1335 663 520 474 3613 2347 518 294 224 70 1829 1775 1470
is_linear=0
shrinkage=0.0786055


Tree=52
num_leaves=17
num_cat=0
split_feature=118 41 36 40 39 2 18 107 43 115 120 41 19 39 40 116
split_gain=0.00833281 0.0375579 0.0399152 0.0279544 0.0394792 0.0199428 0.0205881 0.0166358 0.0430597 0.0370879 0.0552783 0.0174669 0.0151771 0.0192185 0.0138095 0.0273699
threshold=206638.04353656 0.16771127711208897 0.0080176533812172986 0.01399672254444405 1.3225430469123689 0.045455404240781323 0.084910124699006301 2.6682861094178922 2.0879803748357868 0.35289270925710053 9.7854115591393379e-05 0.21218319163144508 -0.11163984328955999 2.454771690628156 0.004861720414773822 0.00013734150428426379
decision_type=2 2 2 2 2 2 2 2 2 2 2 2 2 2 2 2
left_child=1 2 14 4 -3 6 -6 8 -2 10 -10 -12 -8 -14 15 -1
right_child=7 3 -4 -5 5 -7 12 -9 9 -11 11 -13 13 -15 -16 -17
leaf_value=-5.7001147439508348e-06 0 0 0.0015714412752790461 0 0 0 0 -0.00053116391844963424 0 0 0 0.0043605273481550277 -0.0030108401409148717 0 0.00027085046758432287 -0.00080342848211346701
leaf_weight=3072 1193 93 99 75 56 23 23 130 45 194 22 55 124 26 692 318
leaf_count=3072 1193 93 99 75 56 23 23 130 45 194 22 55 124 26 692 318
internal_value=0 -5.45939e-05 0 -0.000764841 -0.00110115 -0.00162087 -0.00185166 0.000151804 0.000262316 0.00108168 0.00221461 0.00349182 -0.00229615 -0.0025893 -2.09818e-05 -0.000103546
internal_weight=6240 4601 4181 420 345 252 229 1639 1509 316 122 77 173 150 4082 3390
internal_count=6240 4601 4181 420 345 252 229 1639 1509 316 122 77 173 150 4082 3390
is_linear=0
shrinkage=0.0786055


Tree=53
num_leaves=17
num_cat=0
split_feature=3 17 84 100 41 121 40 9 111 55 122 104 86 17 19 20
split_gain=0.00808851 0.0135029 0.0156039 0.0114314 0.0325888 0.0654174 0.0310031 0.0398386 0.0200463 0.0139718 0.0153287 0.0134319 0.0167698 0.0131034 0.0247471 0.0216806
threshold=0.030572794266529816 0.049801460322684538 0.00038660512762559639 0.012408376212490215 0.21800010796294886 0.002423779201485371 0.014580958847745714 0.040185587055541837 1.546265660132242 0.0092428456579752832 268509.27221331326 0.0110589921276308 38736.261950834931 0.038748758375070934 -0.023909879938851238 0.18747546146021071
decision_type=2 2 2 2 2 2 2 2 2 2 2 2 2 2 2 2
left_child=1 3 -3 4 13 -6 7 11 -8 10 -7 -5 -13 15 -15 -1
right_child=-2 2 -4 6 5 9 8 -9 -10 -11 -12 12 -14 14 -16 -17
leaf_value=-9.3615475855050656e-06 -0.00030864373958907585 0.0015756736216446779 0 0 0 0.0038666056026682976 0.0014332060188273002 0 0 0 0 0 -0.0022272344894470426 0 -0.0014952969377321093 0.00055501531828662694
leaf_weight=4488 480 74 22 21 95 53 61 35 44 34 22 21 138 105 103 444
leaf_count=4488 480 74 22 21 95 53 61 35 44 34 22 21 138 105 103 444
internal_value=0 2.71259e-05 0.00095491 0 3.85657e-05 0.00101257 -0.000442492 -0.00108337 0.000128426 0.00237088 0.00305175 -0.00166378 -0.00191178 0 -0.000611041 2.56633e-05
internal_weight=6240 5760 96 5664 5344 204 320 215 105 109 75 180 159 5140 208 4932
internal_count=6240 5760 96 5664 5344 204 320 215 105 109 75 180 159 5140 208 4932
is_linear=0
shrinkage=0.0786055


Tree=54
num_leaves=17
num_cat=0
split_feature=106 102 89 19 94 110 107 102 105 119 105 22 89 106 27 73
split_gain=0.00738304 0.0382127 0.0244649 0.0460952 0.0235089 0.0201446 0.0504076 0.0395876 0.0341661 0.0291939 0.0393475 0.103201 0.0285302 0.0291419 0.0257193 0.0239936
threshold=6837893.8278138535 7501062.7880759137 0.00089777263247552228 0.070536821837006061 7237591.9556277068 2423702.9383192523 0.47985938668767103 2510018.7524234699 0.21400156134393553 0.076397466621343932 0.11333470546814635 45053390.673733391 0.0053959512295766949 4641356.1343813138 11.500000000000002 0.18320324333676644
decision_type=2 2 2 2 2 2 2 2 2 2 2 2 2 2 2 2
left_child=5 2 -2 -4 -3 7 15 -1 9 10 -8 12 13 -12 -9 -7
right_child=1 4 3 -5 -6 6 8 14 -10 -11 11 -13 -14 -15 -16 -17
leaf_value=-3.7991912442611006e-05 0 -0.00091492446908875656 0.0019168491057208782 0 5.8795273567260278e-05 0.0015481972786489022 -0.00019200729237819127 0.0012561189643335384 0.00026038849760271106 0 0 0 0 -0.0040274051684571288 0 0
leaf_weight=3117 128 169 192 79 1096 99 334 254 110 222 30 130 28 121 67 64
leaf_count=3117 128 169 192 79 1096 99 334 254 110 222 30 130 28 121 67 64
internal_value=0 0.00014301 0.000822498 0.00124634 -9.79393e-06 -5.03122e-05 -0.000343222 2.39908e-05 -0.000604336 -0.000804387 -0.00107278 -0.00177224 -0.00299658 -0.00343646 0.000868225 0.000740216
internal_weight=6240 1664 399 271 1265 4576 1138 3438 975 865 643 309 179 151 321 163
internal_count=6240 1664 399 271 1265 4576 1138 3438 975 865 643 309 179 151 321 163
is_linear=0
shrinkage=0.0786055


Tree=55
num_leaves=17
num_cat=0
split_feature=3 4 19 12 16 21 14 40 123 20 121 41 115 122 122 34
split_gain=0.00741555 0.0164736 0.024021 0.0130437 0.0135138 0.0116603 0.0158281 0.0143248 0.0271157 0.0187817 0.0197788 0.0176781 0.0158287 0.0141138 0.0140892 0.0137009
threshold=0.022496099363575332 0.036698212347605029 -0.024848313401654828 0.14210306377854676 -0.0064874877016267256 411685066.66666669 87088002.15541251 0.0048805559783669621 0.015736391082115459 0.07669913605938404 0.0040600368162547161 0.067738636345704192 0.32808616891567188 107056.80157330981 82483.441199702895 3352977.6071428577
decision_type=2 2 2 2 2 2 2 2 2 2 2 2 2 2 2 2
left_child=1 5 -3 -2 -5 7 -7 11 12 -10 14 -1 -9 -13 15 -11
right_child=3 2 -4 4 -6 6 -8 8 9 10 -12 13 -14 -15 -16 -17
leaf_value=0 0 0.00073892051159145334 0 0 -0.0011295299585196651 -0.0012986731465753144 0 0.0010037255755983379 0.00055281329963660706 0 9.0026223684695015e-05 -0.00076865006008262871 0 0 0 -0.0015807455962300984
leaf_weight=2294 570 467 440 38 160 101 130 329 307 102 419 370 32 120 236 125
leaf_count=2294 570 467 440 38 160 101 130 329 307 102 419 370 32 120 236 125
internal_value=0 3.19744e-05 0.000342866 -0.000228837 -0.000780867 -1.27367e-05 -0.000561159 0 0.000206741 0 -0.000158582 -8.94044e-05 0.000804602 -0.000517933 -0.000551756 -0.00100199
internal_weight=6240 5472 907 768 198 4565 231 4334 1550 1189 882 2784 361 490 463 227
internal_count=6240 5472 907 768 198 4565 231 4334 1550 1189 882 2784 361 490 463 227
is_linear=0
shrinkage=0.0786055


Tree=56
num_leaves=17
num_cat=0
split_feature=113 8 97 22 43 75 81 14 17 75 116 27 27 27 91 23
split_gain=0.00664528 0.0220398 0.0272567 0.0289975 0.0224644 0.0233281 0.0280648 0.027515 0.0341477 0.018556 0.0174409 0.0188334 0.0420631 0.0408966 0.025251 0.0243032
threshold=0.005436794678253829 0.0039981286958722861 0.052654724417679648 63335767.697544515 1.3049515434301191 2.1861491142757363 0.01559090296344186 37042548.010112017 0.020563125586029633 1.1697133375471511 0.00011113576854918158 9.5000000000000018 8.5000000000000018 11.500000000000002 0.0026230387089626063 4.3463085883570844
decision_type=2 2 2 2 2 2 2 2 2 2 2 2 2 2 2 2
left_child=10 2 -2 -4 9 6 7 8 -6 -3 11 12 -1 15 -14 -13
right_child=1 4 3 -5 5 -7 -8 -9 -10 -11 -12 13 14 -15 -16 -17
leaf_value=0 0.00053108004912938228 0 -0.00090134039094650188 0.0005269623493397717 0 0 0 0 -0.0022931955812574237 0.0012472662956438492 -0.00037870564208547996 0.0013619799442751866 -0.0014320568754495873 -0.00024882082053613255 0 0
leaf_weight=2110 1076 173 198 96 110 200 43 91 158 89 858 262 211 256 46 263
leaf_count=2110 1076 173 198 96 110 200 43 91 158 89 858 262 211 256 46 263
internal_value=0 0.000107359 0.000323752 -0.000170036 -0.000145596 -0.000470144 -0.000830296 -0.00112016 -0.00152139 0.000302743 -6.18179e-05 0 -8.49733e-05 0.000356499 -0.00103787 0.000800022
internal_weight=6240 2234 1370 294 864 602 402 359 268 262 4006 3148 2367 781 257 525
internal_count=6240 2234 1370 294 864 602 402 359 268 262 4006 3148 2367 781 257 525
is_linear=0
shrinkage=0.0786055


Tree=57
num_leaves=17
num_cat=0
split_feature=90 122 117 20 27 27 18 117 27 22 15 122 27 17 23 19
split_gain=0.00669189 0.0169463 0.019539 0.019453 0.0168625 0.0336969 0.0410227 0.028379 0.0302718 0.0237506 0.0445212 0.0258488 0.0485762 0.0441263 0.0238636 0.0381627
threshold=42586.328709051326 268509.27221331326 0.006561729640798564 0.13677090923627699 7.5000000000000009 9.5000000000000018 0.043779729747032974 0.0012676157602445979 11.500000000000002 15250246.379138989 1.191222777438351 25487.096696283716 6.5000000000000009 0.010299425446552593 1.3681466307050127 -0.092578443209630309
decision_type=2 2 2 2 2 2 2 2 2 2 2 2 2 2 2 2
left_child=4 -2 3 -3 9 6 -6 8 -7 11 -11 12 -1 -14 -12 -16
right_child=1 2 -4 -5 5 7 -8 -9 -10 10 14 -13 13 -15 15 -17
leaf_value=0.00021062029561137315 0.00027799438654236539 0 5.6147913535231202e-05 -0.0014655658148471902 0 0.00071947303596594364 -0.0010818569391623889 -0.00052915313885115571 -0.00019298568252690599 0.00068067874825104369 -0.0022969026549374445 -3.6927928812744545e-05 0 0.0030970754439453587 0.0010274906051157249 -0.00047249452550752129
leaf_weight=721 1470 123 210 121 226 485 488 367 227 251 52 409 37 86 94 873
leaf_count=721 1470 123 210 121 226 485 488 367 227 251 52 409 37 86 94 873
internal_value=0 0.000122447 -0.000209558 -0.000757275 -5.38126e-05 -0.000247288 -0.000667152 0 0.000319172 5.28084e-05 -0.000147015 0.000317513 0.000581552 0.00212035 -0.000427413 -0.000245989
internal_weight=6240 1924 454 244 4316 1793 714 1079 712 2523 1270 1253 844 123 1019 967
internal_count=6240 1924 454 244 4316 1793 714 1079 712 2523 1270 1253 844 123 1019 967
is_linear=0
shrinkage=0.0786055


Tree=58
num_leaves=17
num_cat=0
split_feature=3 24 22 120 13 9 5 13 54 11 123 18 15 23 21 4
split_gain=0.00691185 0.00781951 0.00788837 0.0122416 0.0131343 0.0128327 0.0109869 0.0124957 0.0128543 0.0132985 0.0117639 0.00953036 0.0106252 0.00808743 0.00755941 0.00724181
threshold=-0.0013776001474319897 52.986792895759713 11797165.383313132 0.00016330852932968344 21570550.000000004 0.034073391078069913 104005150.00000001 453264500.00000006 191763.98325305225 -0.034702285834701078 0.032882095614593203 0.15174890303781199 8.0476717644771387 2.933800998573266 23739476.666666668 0.013075270767709412
decision_type=2 2 2 2 2 2 2 2 2 2 2 2 2 2 2 2
left_child=1 2 3 4 -1 14 10 8 9 -8 11 12 13 -4 -6 -15
right_child=-2 -3 6 -5 5 -7 7 -9 -10 -11 -12 -13 -14 15 -16 -17
leaf_value=0 -7.1169193315688756e-05 0 0 0 0 0 0.0013306517373802851 0 0 0 0.00019289478788750536 0 0 0 0.0012101587231121702 -0.0010457686442381631
leaf_weight=50 3544 1183 33 79 37 33 168 108 28 157 152 22 31 69 276 270
leaf_count=50 3544 1183 33 79 37 33 168 108 28 157 152 22 31 69 276 270
internal_value=0 9.58224e-05 0.000219752 0.000505923 0.000705648 0.000896838 1.36912e-05 0.000357452 0.00062087 0.000814217 -0.000125978 -0.000423318 -0.000578831 -0.000734416 0.00106878 -0.000859763
internal_weight=6240 2696 1513 475 396 346 1038 461 353 325 577 425 403 372 313 339
internal_count=6240 2696 1513 475 396 346 1038 461 353 325 577 425 403 372 313 339
is_linear=0
